-0.425506591797
0.100387573242
-0.468948364258
-0.086120605469
-0.123794555664
0.021423339844
-0.478271484375
0.035781860352
-0.005050659180
-0.387329101562
-0.402603149414
-0.102111816406
-0.201858520508
-0.342788696289
-0.091629028320
0.468475341797
0.486816406250
-0.217620849609
0.054351806641
0.235015869141
0.306900024414
-0.277328491211
0.266555786133
-0.285369873047
-0.003067016602
0.236801147461
0.343475341797
0.185195922852
0.266494750977
-0.209793090820
-0.171752929688
-0.251586914062
-0.285049438477
0.340682983398
-0.218170166016
0.233016967773
-0.403808593750
0.178665161133
0.057937622070
-0.289154052734
0.086776733398
0.472900390625
-0.411819458008
-0.369125366211
0.487823486328
0.379364013672
-0.393859863281
-0.115066528320
0.227157592773
-0.305953979492
0.079818725586
-0.331710815430
-0.384490966797
0.280303955078
0.197387695312
0.292572021484
0.004928588867
0.115997314453
0.150894165039
0.164566040039
0.400650024414
0.137420654297
0.460525512695
-0.210067749023
-0.332824707031
0.024291992188
-0.333511352539
-0.321563720703
-0.091918945312
-0.252120971680
0.347778320312
0.113754272461
-0.050033569336
-0.383987426758
-0.474456787109
-0.080780029297
0.350570678711
0.110321044922
-0.036346435547
0.105056762695
0.391815185547
0.138519287109
-0.014328002930
0.232833862305
-0.333999633789
-0.355697631836
-0.476104736328
-0.268539428711
0.299453735352
0.145523071289
-0.124847412109
-0.496368408203
-0.119567871094
-0.410934448242
0.341308593750
0.157775878906
0.150619506836
0.065124511719
0.476669311523
0.070358276367
-0.280868530273
0.024108886719
-0.475097656250
-0.407104492188
-0.276824951172
0.069183349609
0.240447998047
0.320312500000
0.435531616211
-0.203887939453
-0.334609985352
-0.003417968750
-0.394058227539
-0.273193359375
-0.497985839844
-0.338348388672
-0.086776733398
-0.263153076172
-0.168701171875
0.338684082031
0.149215698242
-0.069564819336
-0.255477905273
0.314590454102
-0.282821655273
-0.207382202148
-0.488082885742
-0.041198730469
0.379913330078
0.483474731445
-0.330200195312
-0.290817260742
0.379959106445
0.335220336914
0.302963256836
-0.442443847656
0.269104003906
-0.137252807617
0.361389160156
0.104141235352
-0.365081787109
-0.475921630859
-0.396072387695
-0.043273925781
0.346008300781
-0.081207275391
-0.191696166992
0.069030761719
-0.258789062500
-0.116363525391
0.165496826172
0.261291503906
0.273162841797
0.082992553711
-0.166061401367
0.291549682617
0.158233642578
-0.082473754883
0.021560668945
-0.213485717773
-0.143264770508
-0.006088256836
-0.201889038086
-0.296768188477
-0.116607666016
0.352493286133
0.196960449219
0.247055053711
0.161575317383
0.370468139648
-0.287826538086
0.102157592773
0.157135009766
0.123825073242
0.014648437500
-0.214401245117
-0.225738525391
0.122543334961
-0.446609497070
-0.206436157227
-0.157882690430
0.458953857422
-0.065368652344
0.460189819336
0.442855834961
0.085281372070
0.374649047852
0.134048461914
-0.221282958984
0.109298706055
-0.439224243164
0.320129394531
0.300094604492
0.496765136719
0.169601440430
-0.266448974609
-0.380889892578
0.113357543945
-0.228622436523
-0.009582519531
0.475448608398
-0.351333618164
-0.244491577148
0.334457397461
-0.184310913086
0.413589477539
-0.462112426758
0.237548828125
0.477325439453
0.089752197266
-0.096343994141
-0.390121459961
0.032409667969
0.427276611328
-0.277420043945
0.175048828125
0.330825805664
0.346237182617
-0.345535278320
-0.230209350586
-0.402297973633
0.293502807617
-0.364562988281
0.394332885742
-0.031753540039
-0.252319335938
-0.088775634766
-0.140487670898
0.328353881836
0.382873535156
-0.264541625977
0.101364135742
0.013854980469
0.434127807617
0.021240234375
-0.036056518555
-0.062530517578
0.329025268555
-0.210235595703
0.442916870117
0.256042480469
0.308181762695
-0.155548095703
-0.213119506836
-0.289825439453
0.153533935547
-0.308670043945
0.102310180664
-0.480514526367
-0.277618408203
0.324478149414
0.136138916016
0.200469970703
-0.101745605469
0.354812622070
0.020080566406
0.227249145508
0.274887084961
-0.156967163086
-0.313095092773
-0.445632934570
0.351409912109
0.358459472656
-0.175598144531
0.223724365234
-0.008666992188
0.186111450195
-0.476150512695
0.076919555664
-0.321899414062
0.388076782227
0.317520141602
0.181793212891
0.489028930664
0.218109130859
-0.127120971680
0.447402954102
0.198593139648
-0.333053588867
-0.164749145508
0.297775268555
-0.141632080078
0.377670288086
-0.053375244141
-0.138214111328
-0.492614746094
0.425079345703
0.139541625977
0.285354614258
0.031021118164
-0.392684936523
0.282089233398
0.015441894531
-0.231475830078
0.270523071289
-0.356170654297
0.245559692383
0.097839355469
0.185821533203
0.479568481445
-0.354797363281
-0.186218261719
0.476989746094
-0.178573608398
-0.229248046875
0.311553955078
-0.130752563477
-0.268707275391
0.289581298828
0.321243286133
0.141921997070
0.420486450195
0.259567260742
-0.446472167969
0.209167480469
0.499435424805
-0.164382934570
0.107849121094
-0.403732299805
0.297378540039
0.434585571289
0.006286621094
-0.114151000977
0.310668945312
-0.463836669922
-0.442153930664
-0.014328002930
0.082702636719
-0.310791015625
-0.456787109375
-0.042419433594
0.004028320312
-0.263519287109
0.435562133789
-0.197555541992
-0.265304565430
-0.076293945312
0.034927368164
0.071243286133
0.417434692383
-0.425613403320
0.449310302734
0.199249267578
-0.024658203125
-0.285644531250
-0.389587402344
-0.244216918945
0.255798339844
0.102050781250
-0.142898559570
0.432891845703
0.303894042969
-0.040863037109
-0.142028808594
-0.368347167969
0.276031494141
-0.316574096680
-0.118942260742
0.361633300781
-0.302413940430
-0.006576538086
0.349288940430
0.206314086914
0.176544189453
0.389053344727
-0.333404541016
-0.162155151367
-0.387710571289
0.399902343750
-0.206802368164
0.154571533203
0.291992187500
-0.207550048828
-0.499938964844
0.033142089844
0.336502075195
0.352111816406
-0.279632568359
0.002838134766
0.112121582031
-0.303573608398
-0.236694335938
0.400756835938
-0.483261108398
-0.264678955078
0.268173217773
0.373931884766
-0.142181396484
-0.264175415039
-0.249237060547
-0.494659423828
0.021301269531
-0.475494384766
-0.141296386719
-0.043441772461
0.106765747070
-0.202850341797
0.444458007812
-0.153701782227
0.455413818359
-0.182510375977
0.044067382812
-0.397750854492
-0.309020996094
0.134567260742
-0.390609741211
0.298614501953
0.292160034180
-0.411239624023
-0.354965209961
0.039550781250
-0.352798461914
0.002777099609
-0.415954589844
0.454559326172
-0.484573364258
-0.368820190430
-0.088607788086
-0.118301391602
-0.159072875977
-0.471252441406
0.324523925781
0.474121093750
0.185592651367
0.388107299805
-0.226593017578
0.444290161133
0.247055053711
-0.102661132812
0.295516967773
-0.256469726562
-0.490173339844
-0.334777832031
0.168365478516
-0.175674438477
-0.304473876953
0.363052368164
-0.123367309570
0.242721557617
-0.460891723633
0.262832641602
-0.221847534180
-0.223220825195
-0.363525390625
-0.446105957031
-0.214920043945
-0.312622070312
-0.467102050781
-0.088653564453
0.168823242188
-0.303802490234
-0.081878662109
0.415893554688
-0.304168701172
0.313720703125
0.448715209961
-0.009429931641
-0.192230224609
-0.326644897461
0.273422241211
0.089538574219
0.100128173828
-0.452865600586
0.328811645508
0.418655395508
-0.440155029297
-0.277984619141
-0.495803833008
0.339202880859
0.489471435547
-0.092453002930
-0.473541259766
0.324920654297
-0.019577026367
0.429641723633
-0.479064941406
0.262512207031
0.407913208008
0.064682006836
0.494262695312
0.106246948242
0.069549560547
0.273345947266
0.290817260742
-0.141860961914
0.429840087891
-0.247406005859
-0.279098510742
0.303070068359
-0.082092285156
0.407897949219
0.157531738281
-0.478683471680
0.368331909180
0.119873046875
-0.416061401367
0.198196411133
0.030990600586
0.412521362305
0.058822631836
0.366226196289
-0.420944213867
-0.003555297852
0.214172363281
-0.041046142578
-0.033966064453
0.472946166992
0.291198730469
-0.023818969727
0.369277954102
-0.208389282227
0.069885253906
-0.391723632812
-0.314239501953
-0.232391357422
0.055557250977
-0.048980712891
-0.472549438477
-0.078964233398
-0.352142333984
-0.345092773438
-0.097717285156
0.371032714844
0.331024169922
-0.203277587891
-0.304489135742
0.386093139648
0.310531616211
-0.397125244141
-0.182006835938
0.411239624023
-0.435424804688
0.331604003906
-0.217880249023
0.287643432617
0.312637329102
0.070312500000
-0.304138183594
0.266799926758
-0.158248901367
0.476577758789
0.042907714844
-0.436492919922
-0.441497802734
0.005355834961
-0.068145751953
-0.333190917969
-0.159973144531
0.408432006836
0.416320800781
0.239654541016
0.157043457031
0.390121459961
-0.048721313477
-0.371780395508
0.491882324219
-0.071945190430
-0.087402343750
-0.145324707031
-0.193176269531
0.174011230469
-0.108276367188
0.199295043945
-0.178802490234
-0.399124145508
-0.120880126953
-0.334472656250
-0.187988281250
-0.332138061523
-0.316940307617
-0.150100708008
0.071426391602
0.197906494141
-0.256698608398
-0.202774047852
-0.138076782227
-0.362854003906
0.238067626953
-0.030487060547
0.496917724609
0.385620117188
0.079620361328
-0.457824707031
0.248931884766
0.117141723633
0.225357055664
0.340866088867
0.096405029297
-0.417877197266
-0.260330200195
0.195800781250
-0.420639038086
0.179885864258
-0.193313598633
0.133789062500
0.046371459961
-0.065750122070
-0.463150024414
-0.252395629883
0.452865600586
-0.347518920898
0.171081542969
0.391052246094
-0.249740600586
-0.069274902344
-0.004531860352
0.406539916992
-0.290435791016
-0.219741821289
-0.003067016602
0.351943969727
-0.036956787109
-0.369079589844
0.215637207031
0.022354125977
0.423431396484
0.094024658203
-0.314346313477
-0.152786254883
-0.109893798828
0.355331420898
0.156265258789
0.176879882812
0.178237915039
0.018051147461
-0.408828735352
-0.153579711914
-0.349395751953
-0.346588134766
-0.094573974609
-0.458328247070
-0.084823608398
0.303207397461
0.427627563477
-0.004379272461
0.165969848633
-0.067291259766
0.466476440430
-0.195266723633
-0.188461303711
-0.151397705078
0.179473876953
0.199218750000
-0.296066284180
0.425033569336
0.026153564453
0.289810180664
0.303115844727
0.180206298828
0.108932495117
-0.203277587891
0.258895874023
-0.227951049805
-0.174774169922
-0.000122070312
-0.210159301758
0.416351318359
0.262847900391
-0.315551757812
-0.379196166992
-0.455352783203
-0.077377319336
0.398620605469
-0.035781860352
0.456527709961
0.130874633789
0.091720581055
-0.312698364258
-0.196060180664
0.174530029297
0.003204345703
-0.197830200195
-0.490142822266
0.194564819336
-0.270935058594
-0.287765502930
0.494110107422
-0.089004516602
0.301834106445
-0.220764160156
-0.048416137695
0.154785156250
0.351348876953
-0.295944213867
-0.432968139648
0.367095947266
0.117843627930
0.343688964844
-0.081695556641
0.294769287109
0.038391113281
0.252029418945
0.302368164062
0.286834716797
0.041763305664
-0.241714477539
0.378875732422
0.355102539062
0.429031372070
-0.143478393555
0.328018188477
-0.301162719727
0.261505126953
-0.374633789062
-0.135025024414
-0.172744750977
0.486160278320
-0.346130371094
0.459014892578
-0.396682739258
0.288391113281
-0.125595092773
-0.476181030273
0.115310668945
-0.471191406250
0.167587280273
0.256301879883
0.336715698242
0.132720947266
0.129165649414
0.164749145508
-0.441894531250
-0.459671020508
0.078186035156
-0.414886474609
-0.200592041016
0.213104248047
-0.289947509766
0.326660156250
-0.155654907227
0.469955444336
-0.471145629883
0.356658935547
-0.152496337891
-0.332626342773
0.260391235352
-0.006454467773
0.079483032227
-0.241622924805
0.074279785156
-0.340393066406
-0.411911010742
-0.238372802734
-0.368392944336
-0.343475341797
-0.232742309570
-0.169525146484
-0.083999633789
0.431182861328
0.098953247070
-0.376266479492
-0.292022705078
0.344909667969
0.294723510742
-0.199935913086
0.201248168945
-0.379180908203
-0.186813354492
0.355178833008
0.443008422852
-0.438644409180
0.309295654297
0.200607299805
0.263885498047
-0.325942993164
0.486328125000
0.273239135742
-0.099685668945
0.274978637695
0.029388427734
0.486801147461
-0.430053710938
0.275726318359
-0.186584472656
-0.311248779297
0.267959594727
-0.425994873047
-0.293487548828
-0.211791992188
0.009201049805
0.067840576172
-0.144958496094
-0.071105957031
-0.237411499023
-0.432937622070
-0.141769409180
-0.036880493164
0.496246337891
-0.200653076172
0.213638305664
0.472457885742
0.487289428711
-0.265975952148
0.294052124023
-0.204788208008
-0.307998657227
-0.396575927734
0.105133056641
-0.240020751953
-0.286621093750
-0.301635742188
0.478866577148
0.289123535156
-0.098175048828
-0.363449096680
0.485580444336
-0.329544067383
0.394042968750
-0.120468139648
-0.165451049805
0.287246704102
0.433273315430
0.176132202148
0.006546020508
0.074615478516
0.485061645508
-0.240020751953
0.045120239258
-0.053482055664
0.173904418945
-0.322769165039
0.399520874023
0.395858764648
0.055038452148
0.175582885742
-0.101425170898
-0.457519531250
0.448623657227
-0.152496337891
-0.103607177734
-0.221267700195
-0.407623291016
-0.373565673828
0.412902832031
-0.196945190430
-0.252532958984
0.116790771484
-0.409210205078
0.477401733398
0.033386230469
0.292251586914
-0.417587280273
0.475402832031
-0.255798339844
-0.206268310547
0.060226440430
-0.450637817383
-0.296890258789
-0.286849975586
-0.160400390625
0.211791992188
0.365173339844
-0.307373046875
-0.308990478516
-0.443389892578
-0.220397949219
-0.391616821289
0.331268310547
-0.176620483398
0.278732299805
0.188354492188
-0.455062866211
0.314270019531
-0.030761718750
-0.029129028320
-0.359130859375
0.457412719727
-0.092132568359
0.357757568359
0.461990356445
-0.460952758789
-0.263336181641
0.148529052734
0.001449584961
-0.271377563477
-0.401809692383
-0.249481201172
-0.319366455078
-0.032043457031
-0.009933471680
-0.019592285156
-0.274215698242
0.142715454102
0.163589477539
-0.370101928711
0.011520385742
-0.270614624023
-0.033935546875
-0.305465698242
0.089355468750
0.073745727539
-0.278747558594
0.445663452148
-0.410980224609
-0.208587646484
0.464279174805
-0.414810180664
0.072525024414
0.251205444336
-0.219223022461
0.411422729492
0.462280273438
-0.391494750977
0.113220214844
-0.465911865234
-0.352859497070
0.168640136719
0.057678222656
-0.309371948242
0.022460937500
-0.172515869141
-0.064666748047
-0.248306274414
-0.287826538086
-0.422698974609
0.007263183594
0.393524169922
-0.133529663086
0.120193481445
-0.137893676758
0.102966308594
-0.443145751953
-0.273681640625
0.127761840820
-0.457870483398
-0.319519042969
-0.486419677734
0.044006347656
-0.148361206055
0.138290405273
-0.192413330078
-0.313690185547
0.030181884766
-0.026031494141
-0.138885498047
0.419799804688
-0.406707763672
-0.053771972656
0.033309936523
-0.121963500977
0.378356933594
-0.358306884766
-0.041870117188
-0.179336547852
0.169250488281
0.380493164062
-0.114334106445
0.496368408203
0.114151000977
-0.038208007812
0.228179931641
0.139556884766
-0.305114746094
-0.270050048828
-0.005630493164
0.052307128906
-0.421585083008
-0.460952758789
-0.065444946289
0.475448608398
-0.259979248047
0.109863281250
0.312622070312
-0.498794555664
-0.495788574219
-0.225769042969
0.277053833008
-0.487030029297
-0.369873046875
0.211273193359
0.420104980469
0.374801635742
-0.484985351562
0.277160644531
0.309677124023
0.363662719727
-0.030761718750
-0.299179077148
0.169830322266
-0.332901000977
-0.037460327148
0.493041992188
0.462036132812
-0.270446777344
0.381530761719
-0.038024902344
-0.195999145508
-0.228347778320
-0.336730957031
-0.022552490234
0.169326782227
-0.344543457031
-0.474456787109
0.080139160156
0.326248168945
0.425170898438
0.329071044922
0.087005615234
0.025161743164
-0.057388305664
-0.323059082031
0.319305419922
-0.085342407227
0.446945190430
0.125762939453
0.145690917969
0.038574218750
0.179046630859
-0.153244018555
-0.045028686523
-0.319641113281
0.243194580078
-0.493713378906
-0.001251220703
-0.336853027344
-0.478469848633
-0.004745483398
-0.076004028320
-0.329269409180
-0.120132446289
0.443222045898
0.090255737305
0.218826293945
-0.038269042969
-0.156127929688
0.327041625977
0.299591064453
-0.020141601562
-0.366744995117
-0.146881103516
-0.430953979492
-0.087203979492
0.452438354492
-0.102005004883
-0.131118774414
-0.436614990234
-0.041946411133
0.462860107422
0.217056274414
-0.219116210938
-0.321304321289
0.295166015625
-0.176834106445
0.144027709961
-0.436721801758
0.326889038086
-0.265823364258
0.177658081055
-0.086883544922
0.247665405273
-0.204833984375
0.291381835938
-0.242660522461
-0.056182861328
0.013061523438
-0.310592651367
-0.341033935547
0.174270629883
-0.318069458008
-0.424789428711
-0.139404296875
-0.082824707031
0.044021606445
0.302795410156
0.409088134766
0.074142456055
0.437911987305
-0.288040161133
-0.485885620117
0.200210571289
0.350860595703
0.091506958008
0.316696166992
-0.091110229492
-0.237594604492
-0.110839843750
-0.050476074219
-0.054931640625
0.107345581055
0.360504150391
0.305526733398
0.261962890625
-0.417251586914
-0.089019775391
0.149566650391
0.199508666992
0.455780029297
0.292739868164
-0.026000976562
0.378372192383
-0.077117919922
0.232482910156
-0.113525390625
0.478790283203
0.021667480469
-0.275604248047
0.010131835938
-0.160308837891
0.428283691406
0.470672607422
-0.306549072266
-0.077316284180
-0.059204101562
-0.094604492188
0.297012329102
-0.070007324219
-0.252288818359
-0.480438232422
-0.029907226562
-0.011749267578
-0.381973266602
-0.494964599609
0.342285156250
0.118408203125
-0.346817016602
0.243667602539
0.478485107422
0.476028442383
0.114273071289
-0.019012451172
0.235000610352
0.328109741211
-0.344009399414
-0.070648193359
0.140838623047
0.244750976562
0.387176513672
-0.134155273438
0.485305786133
0.434707641602
-0.295669555664
0.075668334961
0.179183959961
0.390701293945
-0.326248168945
0.004028320312
0.055679321289
-0.456863403320
-0.333770751953
0.492416381836
0.425292968750
-0.361785888672
0.381515502930
0.155242919922
0.420700073242
-0.197174072266
0.446289062500
0.100860595703
-0.008407592773
-0.261215209961
-0.446746826172
0.126052856445
0.076751708984
-0.058929443359
-0.000473022461
-0.140182495117
0.074172973633
-0.372680664062
-0.202774047852
0.065963745117
-0.263046264648
-0.242279052734
-0.329452514648
0.292022705078
-0.245529174805
-0.291549682617
0.093322753906
-0.128509521484
0.255767822266
-0.339416503906
0.230850219727
0.391510009766
-0.283660888672
0.167892456055
-0.241317749023
0.462051391602
0.255355834961
0.011535644531
0.234634399414
0.174072265625
0.185195922852
0.006240844727
0.456115722656
0.366348266602
-0.322357177734
0.202316284180
-0.290924072266
0.231140136719
0.420852661133
-0.312011718750
0.381271362305
0.334899902344
0.450820922852
-0.076004028320
0.075866699219
0.472900390625
0.485443115234
0.025299072266
0.093338012695
0.215362548828
0.160476684570
0.309753417969
0.058395385742
-0.071868896484
-0.327041625977
-0.466384887695
0.156417846680
0.142272949219
0.083084106445
0.366470336914
-0.348846435547
0.349899291992
0.333435058594
0.366195678711
0.339004516602
0.363388061523
0.180526733398
0.196594238281
0.391708374023
-0.055801391602
-0.442016601562
-0.041290283203
0.196914672852
0.183227539062
0.473129272461
-0.054733276367
0.464828491211
0.474288940430
-0.051986694336
-0.302719116211
0.136047363281
-0.100051879883
-0.008422851562
0.371627807617
0.074340820312
0.439239501953
-0.449310302734
-0.092178344727
0.419357299805
-0.002227783203
0.263671875000
0.231338500977
0.090332031250
-0.029190063477
0.349456787109
0.401580810547
-0.426040649414
0.077621459961
-0.310028076172
0.026153564453
-0.246109008789
-0.312652587891
0.054901123047
-0.181625366211
-0.348770141602
-0.197357177734
-0.029541015625
0.202697753906
-0.386032104492
0.374130249023
-0.491867065430
0.247695922852
-0.178573608398
-0.112136840820
0.005889892578
-0.376922607422
-0.497589111328
0.461105346680
0.222915649414
0.142944335938
0.008743286133
0.180572509766
0.465591430664
0.307632446289
0.305099487305
0.286376953125
-0.035644531250
0.329986572266
-0.452545166016
0.017227172852
0.242111206055
-0.497100830078
-0.137084960938
-0.171615600586
0.392501831055
0.097412109375
-0.181167602539
-0.136245727539
0.261581420898
-0.437408447266
0.286056518555
-0.244308471680
-0.072570800781
-0.368499755859
0.250640869141
0.177810668945
0.011688232422
-0.040725708008
-0.185760498047
-0.390411376953
0.339645385742
0.127838134766
0.053344726562
0.077880859375
-0.487869262695
-0.465393066406
0.009948730469
0.441436767578
0.051574707031
0.347106933594
-0.058197021484
0.463455200195
-0.190093994141
0.353851318359
-0.007934570312
0.006301879883
0.044555664062
-0.231796264648
-0.078353881836
-0.420303344727
0.377716064453
-0.254638671875
-0.350479125977
-0.033767700195
-0.316818237305
-0.304153442383
0.180282592773
0.370925903320
0.265075683594
0.313613891602
0.497589111328
0.347473144531
0.491821289062
0.403549194336
-0.077804565430
-0.477478027344
-0.450668334961
0.223922729492
-0.409194946289
0.186721801758
-0.024383544922
-0.490707397461
0.429672241211
0.102066040039
-0.144653320312
0.417984008789
0.429824829102
-0.458969116211
0.020309448242
-0.317764282227
0.481414794922
0.424850463867
-0.260253906250
0.021118164062
0.266876220703
-0.048919677734
0.325836181641
-0.048248291016
-0.124923706055
-0.406555175781
0.081085205078
0.250854492188
0.328338623047
0.028396606445
0.159515380859
0.339355468750
0.234878540039
-0.256179809570
0.458251953125
0.372314453125
-0.204376220703
0.484024047852
-0.455062866211
0.334854125977
-0.411819458008
-0.051849365234
0.012863159180
-0.109771728516
0.228668212891
-0.398330688477
0.274612426758
0.435104370117
-0.008987426758
0.139770507812
0.458267211914
-0.170394897461
-0.454421997070
0.009353637695
-0.248825073242
0.145751953125
0.095001220703
-0.313690185547
-0.090606689453
0.020065307617
0.292083740234
0.287063598633
-0.019226074219
0.412704467773
-0.435592651367
0.047058105469
-0.139541625977
0.392623901367
-0.485031127930
0.136337280273
-0.042770385742
0.460128784180
0.149993896484
-0.129379272461
0.014923095703
0.458831787109
0.225967407227
-0.272277832031
-0.219284057617
0.218032836914
0.067886352539
0.306518554688
-0.197250366211
0.411087036133
0.102737426758
0.242630004883
0.288879394531
0.485183715820
-0.290405273438
0.004531860352
0.371032714844
0.103332519531
0.114486694336
0.005294799805
0.173126220703
-0.317825317383
-0.033905029297
0.009506225586
0.259353637695
-0.012161254883
-0.236846923828
0.400451660156
0.090713500977
0.461837768555
-0.169143676758
-0.193130493164
0.090209960938
0.004623413086
0.265502929688
-0.082794189453
-0.021209716797
0.267028808594
-0.073913574219
0.433288574219
0.352020263672
0.148544311523
0.360916137695
0.081192016602
0.128509521484
-0.351119995117
0.387374877930
-0.167785644531
0.377304077148
0.040054321289
0.347473144531
0.203186035156
0.163253784180
0.266952514648
-0.250823974609
0.388595581055
0.202850341797
-0.445327758789
-0.096466064453
-0.308197021484
0.496002197266
-0.170547485352
0.451187133789
-0.457641601562
-0.006546020508
-0.139709472656
0.461257934570
0.026031494141
-0.046020507812
-0.208969116211
-0.216476440430
-0.197967529297
-0.170028686523
0.270950317383
0.446914672852
0.207427978516
0.056961059570
-0.083251953125
0.278305053711
0.047348022461
-0.124191284180
0.178726196289
0.132019042969
-0.188796997070
-0.342483520508
-0.294036865234
0.360305786133
0.467041015625
-0.389541625977
-0.361312866211
-0.168411254883
-0.007522583008
0.483078002930
0.381912231445
0.113815307617
-0.094467163086
-0.353134155273
0.159378051758
0.030364990234
0.208419799805
-0.285781860352
-0.299011230469
-0.184371948242
-0.097335815430
-0.383178710938
0.357009887695
0.364151000977
0.241256713867
0.241241455078
0.345108032227
0.392990112305
0.107894897461
-0.462890625000
-0.308242797852
-0.416671752930
-0.197982788086
-0.040832519531
0.230209350586
-0.339462280273
-0.339279174805
0.115936279297
-0.129516601562
-0.001464843750
-0.043685913086
0.036834716797
-0.039550781250
0.439041137695
-0.216995239258
0.273223876953
-0.127777099609
-0.426452636719
0.295059204102
0.096405029297
-0.165161132812
-0.352416992188
-0.410522460938
0.393692016602
-0.186843872070
0.224411010742
0.184448242188
-0.427261352539
-0.267944335938
0.371963500977
-0.436920166016
0.078765869141
-0.014434814453
-0.262023925781
-0.003463745117
-0.165252685547
0.498245239258
-0.015930175781
0.433624267578
0.125411987305
-0.023452758789
0.469238281250
0.120391845703
-0.233657836914
0.140930175781
0.384063720703
-0.357620239258
0.445449829102
0.221832275391
-0.073989868164
-0.474792480469
0.439270019531
-0.009094238281
0.061248779297
0.031509399414
0.218368530273
0.179260253906
-0.318923950195
-0.221405029297
0.383682250977
0.489212036133
-0.069320678711
-0.428115844727
0.247985839844
-0.389465332031
0.101776123047
-0.252349853516
0.083877563477
-0.412216186523
0.044448852539
-0.107269287109
0.225753784180
0.019485473633
-0.258911132812
-0.287017822266
-0.430587768555
0.011672973633
-0.218750000000
0.470184326172
-0.327301025391
0.423355102539
-0.176437377930
-0.179702758789
0.428436279297
0.279159545898
-0.337600708008
0.420989990234
-0.189193725586
0.405578613281
-0.241363525391
0.032501220703
0.338455200195
-0.167129516602
-0.194992065430
0.187911987305
-0.138153076172
0.140274047852
0.352920532227
-0.120483398438
-0.480545043945
-0.489547729492
-0.344589233398
0.364517211914
0.221969604492
0.466506958008
-0.198760986328
0.358551025391
0.124206542969
0.089660644531
-0.321228027344
-0.080612182617
-0.038742065430
0.349319458008
-0.113220214844
-0.285202026367
0.439636230469
-0.282150268555
-0.149459838867
0.459259033203
-0.458007812500
0.307937622070
0.155776977539
-0.151428222656
-0.044357299805
0.287628173828
-0.128555297852
0.157119750977
-0.470764160156
-0.225799560547
-0.178039550781
0.284484863281
0.061370849609
0.421493530273
-0.146743774414
-0.132598876953
0.041320800781
-0.230545043945
0.324371337891
0.347747802734
0.160461425781
-0.480224609375
0.063461303711
0.450805664062
-0.262863159180
-0.326187133789
-0.040802001953
-0.071289062500
0.469070434570
-0.459915161133
-0.286087036133
-0.151214599609
-0.267593383789
-0.474029541016
0.062377929688
-0.063125610352
0.385025024414
-0.331237792969
0.241561889648
-0.474090576172
-0.109390258789
-0.428039550781
-0.052642822266
0.143020629883
-0.252532958984
-0.488586425781
-0.254928588867
-0.422409057617
0.063446044922
0.422302246094
-0.132461547852
0.171875000000
-0.253036499023
0.019989013672
-0.444488525391
-0.417327880859
0.399627685547
0.214599609375
0.342956542969
0.317489624023
0.317123413086
-0.041015625000
-0.020675659180
0.461074829102
0.359008789062
-0.229629516602
0.218109130859
0.389617919922
-0.003433227539
0.002670288086
-0.333129882812
-0.461837768555
0.212005615234
-0.228256225586
-0.363876342773
-0.096130371094
-0.097259521484
0.297058105469
0.009780883789
-0.266891479492
0.396697998047
-0.141723632812
-0.432281494141
0.051712036133
0.103454589844
0.159851074219
0.155059814453
-0.278106689453
-0.370712280273
0.139663696289
0.193084716797
-0.251953125000
0.445297241211
0.259536743164
-0.358718872070
-0.107223510742
0.420379638672
0.075485229492
0.108352661133
-0.187652587891
0.062866210938
-0.478424072266
0.260284423828
-0.070327758789
-0.183898925781
0.183151245117
-0.134460449219
0.417068481445
0.129638671875
-0.312118530273
-0.306533813477
0.410217285156
0.317901611328
-0.159149169922
-0.450958251953
0.202636718750
-0.452835083008
-0.324096679688
-0.119491577148
0.284149169922
0.216674804688
0.387161254883
-0.355468750000
-0.059432983398
-0.117080688477
0.362106323242
0.131546020508
0.180038452148
-0.266448974609
0.455352783203
0.304061889648
0.391220092773
0.377655029297
0.190048217773
-0.477050781250
-0.242996215820
-0.102645874023
-0.304473876953
0.343597412109
-0.472869873047
0.295837402344
0.151718139648
-0.221939086914
0.430526733398
0.246841430664
-0.478759765625
-0.148971557617
0.139572143555
0.117584228516
-0.168457031250
-0.105957031250
0.425582885742
0.187744140625
-0.410018920898
0.398483276367
-0.395919799805
-0.231491088867
-0.360565185547
0.443328857422
0.109008789062
-0.009872436523
-0.240112304688
0.347290039062
0.461135864258
-0.206939697266
-0.223419189453
-0.485977172852
0.177871704102
0.030807495117
-0.185867309570
0.073394775391
-0.479644775391
0.056182861328
-0.490417480469
-0.424987792969
-0.438934326172
0.300292968750
0.052658081055
0.119537353516
0.214736938477
0.491073608398
-0.034378051758
0.209136962891
-0.045303344727
0.473175048828
-0.096954345703
0.184722900391
-0.113174438477
0.359069824219
0.300903320312
-0.265625000000
0.159439086914
0.203460693359
0.251800537109
-0.393569946289
0.383621215820
0.438278198242
-0.134277343750
0.459243774414
0.477554321289
-0.200561523438
0.422943115234
-0.069061279297
-0.275283813477
-0.223419189453
0.322586059570
-0.449935913086
0.466018676758
-0.217346191406
-0.081665039062
0.179946899414
-0.331909179688
-0.465560913086
-0.036254882812
-0.005508422852
-0.169052124023
0.157791137695
-0.255264282227
-0.104492187500
0.337615966797
-0.255889892578
-0.295227050781
-0.258407592773
0.327774047852
0.354049682617
0.014450073242
0.468261718750
-0.251571655273
0.278701782227
0.189712524414
-0.101181030273
0.158081054688
-0.259017944336
0.387985229492
-0.172882080078
-0.232788085938
0.218353271484
0.134780883789
-0.025894165039
0.027465820312
-0.303695678711
0.221817016602
-0.119506835938
0.309555053711
0.425567626953
-0.109359741211
0.268203735352
-0.455413818359
0.275405883789
0.309295654297
-0.274490356445
-0.019760131836
-0.340759277344
0.252182006836
-0.458251953125
-0.245254516602
-0.487365722656
0.429168701172
0.150711059570
-0.191619873047
-0.268280029297
0.067123413086
-0.041397094727
0.305618286133
0.030166625977
0.425979614258
-0.108016967773
-0.489135742188
-0.235946655273
0.499496459961
0.382614135742
-0.453140258789
0.244812011719
-0.398391723633
0.196807861328
0.124481201172
-0.012176513672
0.061004638672
0.030960083008
-0.310256958008
-0.037261962891
-0.429382324219
0.198318481445
0.395401000977
0.472015380859
0.352005004883
0.332427978516
0.456634521484
0.369934082031
-0.021224975586
-0.404220581055
-0.382781982422
0.077621459961
0.035110473633
-0.188415527344
-0.384765625000
0.497192382812
-0.207748413086
0.013076782227
-0.179916381836
0.023468017578
-0.381851196289
-0.399200439453
-0.259536743164
0.380447387695
0.041580200195
0.434783935547
-0.178848266602
-0.185333251953
-0.148941040039
0.330047607422
0.274627685547
-0.107254028320
0.498596191406
0.482070922852
-0.458129882812
0.414947509766
-0.486007690430
0.312667846680
-0.112396240234
0.201797485352
0.253036499023
-0.387359619141
0.094131469727
-0.413848876953
-0.340423583984
0.365798950195
-0.080581665039
-0.175399780273
0.156356811523
-0.106124877930
0.279022216797
-0.065109252930
0.395675659180
-0.287567138672
0.451507568359
-0.270141601562
0.467742919922
0.105545043945
0.122940063477
0.422241210938
0.189529418945
0.281997680664
-0.452697753906
-0.015640258789
-0.015106201172
0.189697265625
-0.413970947266
-0.096771240234
-0.376831054688
-0.467819213867
-0.435073852539
0.100051879883
0.153015136719
-0.071701049805
-0.256988525391
0.374542236328
-0.163513183594
-0.423202514648
0.145935058594
-0.410629272461
-0.179611206055
-0.364898681641
0.199066162109
0.469390869141
-0.065856933594
-0.220108032227
0.156341552734
0.270324707031
-0.282653808594
0.276412963867
0.463790893555
-0.345764160156
0.160720825195
-0.317962646484
-0.420349121094
-0.078277587891
-0.052062988281
0.483154296875
0.041580200195
0.171707153320
0.155746459961
0.318069458008
0.333999633789
-0.227844238281
-0.307769775391
0.017013549805
-0.092346191406
0.311248779297
-0.146697998047
-0.211273193359
0.098129272461
0.492477416992
-0.244659423828
-0.167572021484
-0.308044433594
0.200942993164
0.429489135742
-0.388916015625
0.074401855469
0.187500000000
-0.220169067383
0.311462402344
0.333816528320
-0.303833007812
-0.010375976562
0.474899291992
-0.279647827148
0.002944946289
-0.204956054688
0.493835449219
0.032897949219
-0.421417236328
-0.344207763672
0.187347412109
-0.184143066406
-0.045013427734
-0.156463623047
0.458450317383
-0.449859619141
-0.450515747070
0.070861816406
0.349914550781
0.311553955078
0.307540893555
-0.387130737305
-0.481552124023
0.448104858398
0.120544433594
0.473190307617
-0.263397216797
-0.213714599609
-0.296890258789
0.267898559570
0.098114013672
-0.201522827148
0.452224731445
-0.003601074219
-0.483322143555
0.489395141602
-0.126388549805
-0.450531005859
0.154815673828
-0.129760742188
-0.384658813477
0.017440795898
-0.483856201172
0.266433715820
-0.020339965820
0.342178344727
0.382720947266
-0.138687133789
0.304214477539
-0.469589233398
0.262115478516
0.316345214844
0.256195068359
-0.493347167969
-0.220474243164
-0.064605712891
0.036132812500
0.116485595703
0.059814453125
-0.132232666016
0.372909545898
0.105895996094
-0.304550170898
0.348220825195
-0.298583984375
0.350814819336
-0.389526367188
-0.457931518555
0.131195068359
-0.198287963867
0.398437500000
-0.293838500977
-0.455963134766
-0.010528564453
0.252456665039
0.394699096680
-0.433212280273
-0.002548217773
0.083740234375
-0.243927001953
-0.137374877930
-0.145462036133
-0.316772460938
-0.450225830078
0.431259155273
-0.135055541992
-0.176986694336
0.078094482422
0.013946533203
-0.240600585938
0.223907470703
-0.242691040039
-0.321868896484
0.341125488281
-0.446823120117
-0.332641601562
-0.288848876953
-0.230133056641
0.355407714844
-0.488525390625
-0.288482666016
0.042526245117
-0.419372558594
0.412399291992
-0.027481079102
-0.175643920898
-0.149734497070
-0.455551147461
-0.072769165039
-0.214508056641
-0.371368408203
0.471343994141
0.463256835938
-0.350692749023
-0.427551269531
0.437622070312
0.120651245117
0.016036987305
0.003311157227
0.257568359375
0.043991088867
-0.060745239258
0.353347778320
0.364181518555
-0.093429565430
0.104797363281
0.235931396484
0.351745605469
0.393585205078
-0.431884765625
0.127151489258
-0.149261474609
0.193771362305
0.404830932617
-0.062164306641
-0.254547119141
-0.184921264648
-0.331130981445
0.035095214844
-0.407409667969
-0.444915771484
0.115615844727
-0.097152709961
0.011779785156
0.250076293945
0.092742919922
-0.316421508789
0.428421020508
0.163101196289
-0.070388793945
-0.106933593750
0.200561523438
0.078964233398
-0.431686401367
0.018142700195
0.004257202148
-0.422271728516
0.282333374023
-0.179794311523
0.291336059570
-0.072891235352
0.214294433594
0.118606567383
-0.001892089844
0.471832275391
0.090438842773
-0.087936401367
-0.390304565430
-0.365661621094
-0.279846191406
-0.401824951172
-0.341659545898
-0.355026245117
0.397888183594
0.220199584961
-0.046524047852
0.365783691406
-0.161453247070
0.073913574219
0.359329223633
0.468429565430
0.182907104492
-0.321319580078
0.447769165039
-0.131423950195
0.232681274414
-0.037872314453
-0.128250122070
0.411331176758
0.186492919922
0.132110595703
-0.274200439453
0.291397094727
-0.284683227539
0.376022338867
0.208190917969
-0.372421264648
-0.118072509766
0.408081054688
-0.351715087891
-0.033065795898
0.339736938477
0.291412353516
0.009567260742
-0.006790161133
0.453338623047
-0.189285278320
-0.496871948242
-0.234863281250
-0.316467285156
-0.468399047852
-0.287322998047
-0.396194458008
0.202651977539
-0.333877563477
-0.407363891602
0.343353271484
0.398345947266
0.113723754883
-0.141540527344
0.106262207031
0.022628784180
-0.154083251953
-0.152603149414
0.368087768555
-0.167221069336
-0.281417846680
-0.222045898438
-0.474578857422
0.369079589844
-0.166931152344
-0.062072753906
0.133361816406
0.158798217773
-0.317169189453
-0.415390014648
0.436462402344
-0.457305908203
0.035125732422
-0.057312011719
-0.047729492188
0.138504028320
0.048828125000
-0.453170776367
-0.049453735352
-0.182022094727
0.344146728516
-0.247894287109
0.094665527344
-0.368957519531
0.104827880859
0.340682983398
-0.374435424805
0.206283569336
-0.294570922852
0.311767578125
0.387313842773
-0.245529174805
0.029357910156
0.002792358398
0.116134643555
0.475875854492
0.125793457031
-0.122360229492
0.197372436523
-0.343978881836
-0.049957275391
-0.063461303711
-0.076232910156
0.374008178711
-0.001403808594
0.124938964844
-0.296340942383
-0.141525268555
0.079635620117
0.081192016602
-0.193054199219
0.206436157227
0.471160888672
-0.240890502930
0.350082397461
0.461624145508
0.183822631836
0.237106323242
0.433883666992
0.376007080078
0.366867065430
-0.252197265625
0.336929321289
-0.040344238281
0.182968139648
-0.300201416016
-0.118591308594
-0.397491455078
-0.192581176758
-0.287124633789
-0.202972412109
0.453765869141
-0.153717041016
-0.174972534180
0.221618652344
-0.257293701172
-0.073516845703
0.137100219727
-0.304809570312
0.484283447266
0.178588867188
0.033874511719
0.249328613281
0.210723876953
-0.380081176758
0.061584472656
-0.160400390625
-0.002502441406
-0.254776000977
-0.375137329102
-0.050262451172
-0.434646606445
-0.391815185547
-0.000457763672
0.465118408203
0.416595458984
-0.099853515625
0.060424804688
-0.460922241211
0.363845825195
0.041564941406
-0.430953979492
0.465637207031
0.259002685547
0.348327636719
-0.351104736328
-0.137344360352
-0.271301269531
0.034103393555
0.423233032227
0.195114135742
-0.019470214844
-0.295806884766
0.217987060547
-0.343582153320
-0.351303100586
-0.164077758789
-0.079666137695
-0.310104370117
0.019088745117
0.456344604492
-0.290298461914
-0.472229003906
0.392517089844
0.498245239258
-0.301635742188
-0.084274291992
-0.498382568359
0.118225097656
0.488174438477
-0.209075927734
-0.368011474609
0.198242187500
0.436080932617
-0.207275390625
0.331008911133
0.344818115234
-0.063919067383
-0.321578979492
-0.420547485352
-0.343734741211
-0.275177001953
0.026718139648
-0.297470092773
-0.127609252930
-0.463653564453
0.101684570312
-0.107604980469
-0.160507202148
0.276657104492
-0.131820678711
0.417358398438
-0.018325805664
0.150482177734
0.150238037109
0.106887817383
-0.125564575195
0.465988159180
-0.300247192383
0.069061279297
-0.436126708984
-0.300872802734
0.394424438477
0.210815429688
0.077682495117
0.197052001953
-0.175918579102
0.464889526367
-0.103622436523
0.061859130859
-0.348678588867
0.231124877930
-0.400100708008
-0.147216796875
-0.121231079102
0.319137573242
-0.185623168945
0.185806274414
-0.196136474609
-0.142654418945
-0.084014892578
-0.114654541016
0.191696166992
0.310211181641
-0.168884277344
-0.009628295898
0.011718750000
-0.257614135742
-0.074096679688
-0.056518554688
-0.411788940430
-0.219940185547
0.171646118164
0.082168579102
0.200805664062
0.280410766602
0.182174682617
0.216690063477
-0.003265380859
-0.233383178711
0.000305175781
-0.128646850586
0.137969970703
-0.431976318359
0.173141479492
-0.073699951172
-0.013778686523
0.489212036133
-0.158370971680
-0.066467285156
-0.241210937500
-0.417633056641
0.262725830078
0.267059326172
0.172805786133
0.320281982422
0.460662841797
0.411437988281
-0.376281738281
0.443908691406
0.339294433594
0.302062988281
0.356307983398
-0.348983764648
0.276214599609
0.181945800781
0.042510986328
-0.482254028320
-0.228240966797
-0.432266235352
-0.248275756836
-0.331512451172
-0.022674560547
0.380096435547
0.251434326172
0.026626586914
-0.346527099609
-0.175933837891
0.416915893555
-0.241653442383
0.363845825195
0.055282592773
0.078765869141
-0.497116088867
-0.169204711914
-0.243850708008
0.282394409180
-0.324356079102
-0.193786621094
0.292755126953
0.371780395508
0.240722656250
0.448684692383
0.157775878906
0.223693847656
-0.478454589844
-0.361419677734
-0.341613769531
-0.319244384766
-0.269500732422
0.453979492188
0.486099243164
-0.412689208984
0.402221679688
-0.280990600586
0.439498901367
0.322525024414
0.285873413086
0.273925781250
0.287246704102
-0.242523193359
-0.370376586914
-0.124542236328
-0.298751831055
-0.022354125977
0.097595214844
-0.336944580078
0.298324584961
-0.285110473633
-0.166885375977
0.262557983398
0.368804931641
-0.417770385742
-0.137313842773
-0.192657470703
0.263015747070
0.487136840820
0.444824218750
0.325088500977
0.392776489258
-0.400024414062
0.019653320312
-0.362335205078
0.240097045898
-0.454238891602
-0.257522583008
0.052230834961
-0.162826538086
-0.268157958984
-0.115921020508
-0.470932006836
-0.275314331055
-0.242584228516
-0.432128906250
-0.094024658203
-0.387619018555
-0.384155273438
0.199798583984
-0.101150512695
0.194915771484
0.250976562500
-0.372451782227
-0.489135742188
0.091964721680
-0.138595581055
0.466720581055
-0.238449096680
0.227462768555
-0.020065307617
-0.264343261719
-0.139617919922
-0.223953247070
-0.157699584961
-0.064682006836
0.048187255859
0.089675903320
-0.296127319336
0.166061401367
0.309402465820
-0.146301269531
-0.317276000977
0.083618164062
-0.363464355469
0.348724365234
0.375701904297
-0.473373413086
0.131652832031
-0.311645507812
-0.319168090820
-0.306762695312
-0.036132812500
0.108993530273
-0.172332763672
0.412521362305
-0.150146484375
-0.015609741211
0.369918823242
-0.161590576172
0.050155639648
-0.427108764648
-0.282424926758
-0.006759643555
-0.417160034180
-0.070449829102
0.353790283203
-0.133438110352
0.042922973633
0.449630737305
-0.124069213867
0.307006835938
-0.247009277344
-0.358932495117
0.370025634766
0.004974365234
-0.032150268555
-0.100463867188
-0.056961059570
-0.242309570312
-0.338500976562
-0.466888427734
-0.039779663086
0.041915893555
0.065963745117
0.482788085938
-0.326705932617
-0.252578735352
0.208435058594
-0.220169067383
0.401504516602
-0.046081542969
0.399047851562
0.171356201172
-0.033615112305
0.119186401367
-0.204620361328
0.132431030273
0.080825805664
0.438522338867
0.162002563477
0.480987548828
-0.359542846680
-0.399887084961
-0.098175048828
-0.358459472656
-0.281784057617
-0.329544067383
0.341918945312
-0.111846923828
0.275360107422
-0.206436157227
-0.240081787109
-0.387985229492
-0.091430664062
0.091476440430
-0.004760742188
0.376510620117
0.421798706055
-0.272796630859
-0.178573608398
0.116165161133
-0.202957153320
-0.023574829102
0.309326171875
0.205596923828
-0.276351928711
-0.350326538086
-0.303771972656
0.205856323242
0.022277832031
0.435501098633
-0.210189819336
-0.221435546875
-0.176467895508
-0.399642944336
-0.349822998047
-0.273849487305
0.232971191406
-0.003295898438
0.026916503906
-0.443328857422
0.388458251953
0.415924072266
0.033096313477
-0.107696533203
0.355667114258
-0.051635742188
0.496658325195
0.412460327148
0.376358032227
0.171798706055
-0.122802734375
-0.018325805664
0.395950317383
0.206115722656
-0.416549682617
-0.312622070312
0.161376953125
-0.183044433594
-0.114227294922
-0.408935546875
-0.324676513672
-0.205017089844
-0.278976440430
-0.475433349609
-0.337173461914
-0.085876464844
-0.388290405273
0.318527221680
0.473907470703
-0.036346435547
-0.036041259766
0.128921508789
-0.264312744141
0.186981201172
-0.284957885742
0.096405029297
0.161560058594
-0.038101196289
-0.401336669922
0.235992431641
-0.068756103516
0.305175781250
0.376892089844
-0.329391479492
-0.061279296875
0.448287963867
-0.436157226562
-0.019058227539
-0.032470703125
0.357986450195
-0.246734619141
0.496856689453
-0.295959472656
-0.405212402344
-0.349960327148
0.428787231445
-0.030487060547
-0.441421508789
-0.354858398438
0.169586181641
-0.038070678711
-0.306365966797
0.193267822266
-0.474090576172
0.328460693359
-0.303680419922
-0.069229125977
0.453598022461
0.081695556641
-0.081344604492
-0.265457153320
-0.045394897461
0.413284301758
-0.421829223633
-0.169692993164
0.153488159180
-0.368179321289
0.143341064453
0.110458374023
-0.027862548828
-0.122680664062
-0.027786254883
-0.165115356445
0.394653320312
0.394165039062
0.255722045898
0.196151733398
0.465484619141
-0.371688842773
-0.140258789062
-0.312545776367
0.479980468750
0.498474121094
0.260757446289
-0.126068115234
0.150848388672
-0.318832397461
-0.256332397461
0.043380737305
0.392547607422
0.263610839844
0.091995239258
-0.169128417969
0.211151123047
0.285461425781
-0.325988769531
-0.362274169922
-0.464401245117
0.236175537109
0.107910156250
-0.051528930664
0.221450805664
0.252563476562
-0.204452514648
0.377868652344
-0.043701171875
0.073959350586
-0.397857666016
-0.229614257812
0.206512451172
0.049636840820
0.122268676758
-0.122665405273
0.298797607422
0.214523315430
0.461837768555
0.127822875977
0.133377075195
-0.431793212891
0.433105468750
-0.250961303711
-0.189727783203
-0.388977050781
-0.112442016602
-0.492706298828
-0.050125122070
-0.246429443359
0.389480590820
-0.059967041016
-0.275650024414
-0.412338256836
-0.229232788086
-0.374114990234
-0.021301269531
-0.384262084961
0.484619140625
-0.111907958984
0.072967529297
0.033508300781
0.351379394531
0.115890502930
0.413208007812
-0.326705932617
-0.222732543945
-0.331863403320
-0.299194335938
-0.365997314453
0.272171020508
0.203140258789
0.279769897461
-0.402832031250
0.040100097656
-0.469985961914
0.263412475586
-0.135070800781
0.136596679688
-0.486907958984
-0.422958374023
-0.075088500977
-0.027832031250
0.101928710938
-0.031341552734
0.218627929688
0.196884155273
0.148818969727
-0.077484130859
0.442428588867
-0.200820922852
0.031188964844
0.209960937500
0.194732666016
-0.310943603516
0.411407470703
0.042999267578
0.237289428711
0.417190551758
0.110504150391
0.087265014648
-0.485702514648
0.258438110352
0.152709960938
-0.077377319336
0.424804687500
0.429489135742
-0.138626098633
-0.045654296875
-0.441757202148
-0.417648315430
0.392044067383
-0.324127197266
0.252883911133
0.415344238281
-0.120803833008
0.339385986328
-0.145233154297
-0.077575683594
-0.201004028320
-0.322235107422
0.032562255859
-0.458007812500
0.347808837891
0.326202392578
-0.308364868164
0.005187988281
-0.266952514648
-0.236267089844
-0.004455566406
0.444091796875
-0.026062011719
0.422988891602
-0.230361938477
0.489486694336
-0.145126342773
-0.387008666992
0.497268676758
-0.243835449219
0.231552124023
0.287536621094
0.255493164062
0.131973266602
0.029037475586
0.161697387695
0.221633911133
-0.213333129883
-0.164520263672
0.366027832031
-0.093765258789
0.291625976562
0.460006713867
0.096923828125
0.295104980469
0.384307861328
0.230041503906
0.173004150391
-0.082092285156
-0.193481445312
-0.145187377930
0.155700683594
-0.018280029297
-0.310806274414
-0.279708862305
0.430648803711
0.320877075195
-0.312240600586
-0.243041992188
-0.466552734375
-0.307189941406
0.258209228516
-0.148300170898
0.248397827148
0.027145385742
0.291152954102
-0.183319091797
0.450180053711
-0.163162231445
-0.227691650391
0.330078125000
0.100738525391
-0.021667480469
-0.109832763672
0.144699096680
0.476364135742
0.414382934570
-0.462997436523
-0.217056274414
0.032363891602
-0.482681274414
0.285659790039
0.301071166992
-0.150268554688
0.100631713867
0.138778686523
-0.479354858398
0.179275512695
0.458786010742
0.154144287109
0.378631591797
-0.343078613281
-0.478302001953
-0.050949096680
-0.341857910156
0.112014770508
0.351135253906
-0.070800781250
0.490127563477
0.384994506836
-0.352279663086
0.279052734375
0.442092895508
-0.466827392578
-0.071166992188
-0.378433227539
-0.229125976562
0.141204833984
-0.061035156250
-0.305725097656
-0.111938476562
0.119369506836
0.156661987305
-0.041213989258
0.373184204102
-0.174255371094
-0.121551513672
0.258804321289
0.173904418945
-0.396240234375
0.166046142578
0.332122802734
0.451538085938
0.060836791992
0.058151245117
0.076019287109
0.161621093750
0.107299804688
0.033676147461
-0.200653076172
-0.011810302734
0.267807006836
-0.440872192383
0.119689941406
0.003509521484
-0.416885375977
-0.170745849609
-0.332687377930
0.446060180664
-0.250366210938
-0.417572021484
0.495788574219
-0.460205078125
0.402359008789
-0.285812377930
-0.158218383789
-0.402740478516
-0.286743164062
0.215545654297
-0.225173950195
-0.447616577148
-0.441925048828
0.157150268555
-0.469787597656
0.170684814453
0.435302734375
0.189285278320
-0.429504394531
-0.347396850586
0.443557739258
0.094161987305
-0.384948730469
0.238891601562
0.294311523438
-0.036224365234
0.424362182617
-0.376220703125
0.318054199219
0.271316528320
0.269332885742
0.008636474609
0.426895141602
-0.373306274414
-0.428390502930
-0.258972167969
-0.362533569336
0.032897949219
-0.220001220703
-0.060455322266
-0.124954223633
-0.114624023438
-0.374694824219
0.003631591797
-0.136306762695
-0.408401489258
-0.008300781250
0.228134155273
0.073455810547
0.151473999023
-0.396606445312
0.377532958984
-0.495239257812
-0.068374633789
0.182983398438
-0.136810302734
0.475936889648
0.215164184570
-0.136627197266
0.094070434570
0.236282348633
0.410980224609
0.050903320312
-0.074371337891
0.491744995117
-0.029220581055
0.127868652344
0.016067504883
-0.344619750977
-0.104736328125
0.102569580078
-0.274368286133
0.255645751953
0.142776489258
0.272323608398
-0.386688232422
-0.297576904297
-0.138153076172
0.136505126953
0.033355712891
-0.359863281250
-0.156051635742
0.420410156250
0.446197509766
0.340972900391
-0.026550292969
-0.096893310547
0.207763671875
-0.420272827148
0.151428222656
-0.272033691406
0.414764404297
0.368499755859
0.156280517578
0.492416381836
0.275039672852
-0.207748413086
0.080108642578
-0.466781616211
-0.344207763672
-0.366317749023
-0.405609130859
-0.219772338867
-0.434082031250
-0.197616577148
-0.373413085938
-0.171203613281
-0.387207031250
0.292098999023
0.001632690430
0.422576904297
0.082916259766
0.285095214844
-0.340744018555
0.347488403320
0.051834106445
-0.393280029297
-0.052856445312
0.345886230469
-0.200561523438
0.184616088867
0.267974853516
0.403610229492
-0.305816650391
0.222473144531
0.002410888672
-0.165740966797
0.042388916016
-0.382675170898
-0.076629638672
0.198440551758
0.321685791016
0.043380737305
-0.039474487305
-0.301483154297
-0.215713500977
0.137176513672
0.020111083984
0.209777832031
0.090652465820
0.120788574219
0.032226562500
0.226318359375
0.479614257812
0.418212890625
-0.121063232422
0.046798706055
0.451568603516
0.379913330078
0.130142211914
-0.066635131836
0.008514404297
0.458007812500
-0.103713989258
0.363937377930
-0.255157470703
0.161712646484
-0.283004760742
-0.383148193359
0.467163085938
0.181701660156
0.277160644531
-0.256652832031
-0.304412841797
-0.035522460938
-0.023300170898
0.302093505859
0.147109985352
0.366394042969
0.022445678711
-0.326217651367
-0.202575683594
0.019409179688
-0.329513549805
-0.483062744141
0.322555541992
-0.356338500977
-0.353530883789
0.110687255859
-0.462173461914
-0.238128662109
-0.139404296875
-0.281127929688
0.337402343750
0.494735717773
-0.464187622070
-0.368972778320
0.428604125977
0.445541381836
-0.213500976562
-0.430374145508
-0.414093017578
-0.285964965820
0.127502441406
0.055404663086
-0.445709228516
-0.236282348633
0.111557006836
-0.408874511719
-0.359512329102
-0.333862304688
0.078140258789
0.001159667969
-0.048248291016
-0.389892578125
-0.199447631836
-0.358734130859
0.283096313477
-0.400421142578
-0.408493041992
-0.237289428711
-0.438430786133
0.134292602539
-0.018753051758
0.176818847656
0.324691772461
0.474822998047
0.116241455078
-0.270767211914
0.036392211914
-0.099105834961
0.333572387695
0.097457885742
-0.275146484375
-0.117721557617
-0.321594238281
-0.424270629883
-0.010559082031
-0.182205200195
0.169174194336
-0.047042846680
0.453063964844
0.120117187500
0.221496582031
-0.031234741211
-0.281555175781
0.227081298828
-0.446441650391
0.201324462891
0.235565185547
-0.252227783203
0.212570190430
0.026245117188
-0.387069702148
-0.322341918945
0.140853881836
0.370086669922
-0.491180419922
0.338989257812
-0.324722290039
-0.280319213867
-0.137390136719
0.120239257812
0.401596069336
0.051651000977
0.157104492188
0.108764648438
-0.142059326172
0.393676757812
-0.101806640625
0.282775878906
0.207656860352
-0.324127197266
0.333282470703
-0.002761840820
-0.285888671875
0.105941772461
-0.395950317383
0.213027954102
0.417480468750
0.359634399414
-0.454528808594
0.139190673828
-0.054855346680
0.088699340820
0.323623657227
0.393661499023
-0.101196289062
0.218322753906
0.339553833008
-0.177185058594
0.248168945312
-0.129196166992
0.357406616211
0.236419677734
-0.213973999023
-0.068374633789
-0.469467163086
-0.142715454102
0.433822631836
-0.186172485352
0.303619384766
0.124404907227
-0.246276855469
0.375961303711
0.246765136719
0.436508178711
-0.342178344727
0.243301391602
-0.161621093750
-0.094314575195
-0.177536010742
0.144348144531
0.484939575195
-0.279388427734
0.231231689453
0.150848388672
0.236877441406
0.355560302734
-0.013610839844
0.132568359375
-0.260162353516
0.486801147461
0.459121704102
-0.036468505859
-0.278366088867
0.065734863281
-0.400848388672
-0.384231567383
0.371398925781
-0.383605957031
-0.158660888672
-0.261611938477
0.280731201172
0.040573120117
-0.197875976562
-0.431594848633
0.435668945312
-0.215011596680
-0.152221679688
-0.437072753906
0.363632202148
-0.307418823242
-0.357269287109
-0.234695434570
-0.216552734375
0.431442260742
0.191711425781
-0.005264282227
-0.167175292969
-0.187942504883
0.239685058594
-0.215026855469
-0.268920898438
-0.289123535156
0.047149658203
0.051101684570
-0.299209594727
0.342956542969
0.064437866211
0.477752685547
0.195022583008
-0.075149536133
0.454086303711
-0.252105712891
0.151947021484
-0.315902709961
-0.004898071289
-0.194152832031
-0.234848022461
0.135345458984
0.374099731445
-0.061676025391
0.410308837891
-0.266174316406
-0.461120605469
-0.478790283203
0.386856079102
-0.428741455078
-0.265838623047
-0.288589477539
0.211364746094
0.294891357422
0.433380126953
-0.119445800781
-0.447341918945
0.218627929688
0.070404052734
0.406555175781
-0.006607055664
-0.162338256836
0.296340942383
-0.028945922852
0.120864868164
-0.208663940430
0.243423461914
-0.149673461914
-0.330902099609
-0.309036254883
-0.323638916016
-0.343124389648
0.037353515625
0.048721313477
-0.234771728516
0.000335693359
-0.094848632812
-0.186874389648
0.233428955078
-0.113204956055
0.179550170898
0.478149414062
-0.213272094727
0.484069824219
-0.199508666992
-0.272857666016
-0.068359375000
-0.305664062500
-0.392868041992
0.231277465820
0.406555175781
-0.457794189453
-0.207458496094
0.011764526367
-0.180374145508
0.075073242188
0.097778320312
-0.496917724609
0.409042358398
0.302703857422
0.262100219727
-0.451187133789
0.075210571289
0.230972290039
0.015182495117
0.198318481445
0.356994628906
-0.267532348633
-0.493988037109
-0.396026611328
0.417694091797
-0.216171264648
-0.324279785156
0.216949462891
-0.307907104492
0.450698852539
0.115768432617
0.149780273438
-0.012039184570
0.049194335938
0.351577758789
0.236785888672
0.415817260742
-0.256744384766
-0.388778686523
0.136886596680
0.250381469727
-0.188934326172
-0.264312744141
-0.111236572266
-0.147430419922
-0.418502807617
0.294921875000
0.091125488281
-0.280075073242
0.411819458008
-0.269409179688
0.046279907227
-0.134674072266
-0.442932128906
-0.074615478516
-0.171264648438
0.469863891602
-0.116195678711
-0.254699707031
-0.254379272461
0.367355346680
-0.115921020508
-0.432189941406
-0.478302001953
-0.115829467773
-0.467651367188
0.034240722656
-0.286392211914
0.263214111328
-0.248428344727
-0.042938232422
-0.045227050781
0.318756103516
0.256057739258
-0.232025146484
-0.384872436523
0.346832275391
-0.054000854492
0.368835449219
0.021926879883
0.251419067383
0.385055541992
-0.420639038086
-0.138671875000
0.264938354492
-0.197555541992
-0.177871704102
-0.134902954102
0.053466796875
-0.304016113281
-0.090866088867
-0.310867309570
-0.204895019531
0.198944091797
0.176757812500
-0.121871948242
0.031570434570
-0.287887573242
0.255249023438
0.411209106445
0.132583618164
-0.119262695312
-0.112838745117
-0.086288452148
-0.282348632812
-0.310684204102
0.370132446289
0.480484008789
-0.131759643555
-0.387512207031
-0.028900146484
-0.050476074219
-0.391769409180
-0.462112426758
0.064224243164
-0.389923095703
-0.192871093750
-0.413925170898
-0.386413574219
0.391952514648
-0.420471191406
-0.357757568359
-0.195495605469
-0.386962890625
-0.362350463867
0.162033081055
0.096466064453
0.273803710938
-0.192657470703
0.283630371094
-0.068618774414
0.258712768555
0.305435180664
0.326309204102
-0.029403686523
-0.040893554688
-0.349227905273
-0.338562011719
-0.000717163086
-0.038711547852
0.346359252930
-0.227325439453
-0.452621459961
0.115264892578
-0.328216552734
0.031890869141
-0.392562866211
-0.274749755859
0.030197143555
0.354736328125
-0.433670043945
-0.104797363281
0.320602416992
0.046463012695
-0.071197509766
0.296569824219
0.431686401367
-0.183151245117
-0.466018676758
0.020278930664
0.272155761719
0.068252563477
0.241912841797
0.377471923828
-0.355911254883
0.305221557617
0.284347534180
-0.305465698242
0.381027221680
-0.240661621094
-0.275146484375
0.155120849609
-0.145050048828
-0.147125244141
-0.331604003906
0.385559082031
0.073959350586
-0.355407714844
0.301605224609
0.118896484375
0.109924316406
0.488983154297
-0.129455566406
-0.244003295898
-0.448715209961
0.038482666016
0.488708496094
0.183334350586
-0.058853149414
-0.430328369141
0.016601562500
-0.055145263672
0.295135498047
-0.138076782227
0.376571655273
-0.388641357422
-0.224227905273
-0.130187988281
0.470733642578
-0.343215942383
0.104660034180
-0.014389038086
-0.429458618164
-0.387115478516
0.146255493164
-0.089950561523
0.163223266602
-0.172180175781
-0.246627807617
-0.074905395508
0.152084350586
0.074020385742
0.017791748047
-0.182037353516
-0.382171630859
-0.077026367188
0.296096801758
0.257461547852
-0.164611816406
0.015151977539
-0.116302490234
-0.126007080078
-0.275115966797
0.126342773438
-0.037490844727
-0.420120239258
0.182388305664
0.260925292969
-0.049957275391
0.046218872070
-0.222656250000
0.177276611328
-0.495178222656
0.100555419922
-0.445556640625
-0.242935180664
0.026626586914
-0.432800292969
0.051483154297
0.201095581055
0.317413330078
0.057662963867
-0.380874633789
-0.362609863281
0.011383056641
-0.070800781250
-0.233474731445
0.064468383789
-0.496261596680
-0.301483154297
0.040466308594
0.192764282227
-0.431259155273
-0.022171020508
-0.408020019531
0.309112548828
0.208541870117
0.355102539062
0.067321777344
-0.308181762695
-0.482742309570
-0.442092895508
-0.230514526367
0.322463989258
0.265243530273
0.133911132812
0.491363525391
0.028549194336
0.296051025391
0.023788452148
-0.074157714844
0.106750488281
0.047882080078
-0.299011230469
-0.120651245117
-0.377090454102
0.154495239258
-0.226165771484
-0.085357666016
0.273620605469
-0.410003662109
-0.135360717773
-0.334503173828
-0.307037353516
0.383087158203
0.138931274414
0.421569824219
-0.452529907227
0.245498657227
0.020996093750
-0.468811035156
-0.232406616211
0.440139770508
0.171585083008
0.345626831055
0.227630615234
-0.085754394531
0.473342895508
-0.016189575195
-0.001602172852
-0.181442260742
0.479537963867
0.005340576172
-0.068252563477
-0.015579223633
0.359039306641
-0.301055908203
-0.026565551758
-0.480163574219
-0.228927612305
0.218582153320
-0.438095092773
-0.020263671875
0.458923339844
-0.021591186523
-0.448455810547
0.325241088867
0.071060180664
0.050521850586
0.017089843750
0.184158325195
-0.066070556641
0.198822021484
-0.494354248047
0.352127075195
-0.193603515625
-0.115219116211
0.181930541992
-0.280563354492
-0.149475097656
-0.415710449219
-0.087463378906
0.033294677734
0.073516845703
-0.386688232422
0.433227539062
0.306137084961
-0.289031982422
-0.044235229492
0.428070068359
-0.085632324219
0.168701171875
0.317138671875
-0.181762695312
-0.469085693359
-0.002395629883
0.090881347656
0.001968383789
-0.003341674805
0.457290649414
-0.400131225586
0.019332885742
0.367691040039
0.312103271484
-0.150939941406
0.174438476562
-0.166381835938
-0.268005371094
0.005310058594
0.363525390625
-0.136398315430
0.479187011719
0.145904541016
0.391235351562
0.488479614258
0.301330566406
0.353607177734
0.388931274414
-0.357437133789
-0.376571655273
-0.016891479492
0.083084106445
-0.482391357422
0.317199707031
-0.478286743164
0.090789794922
0.226272583008
-0.328811645508
-0.315826416016
0.339950561523
-0.307739257812
0.323547363281
-0.491683959961
0.462402343750
-0.409378051758
-0.347015380859
0.119613647461
0.103408813477
0.428146362305
-0.461318969727
-0.312576293945
0.033157348633
0.272811889648
0.201370239258
-0.356872558594
0.442764282227
0.107574462891
-0.088714599609
-0.197677612305
0.424911499023
0.054336547852
-0.254302978516
0.205474853516
0.416625976562
0.149093627930
-0.025222778320
-0.052734375000
0.427017211914
-0.420944213867
0.426010131836
0.494583129883
-0.266494750977
0.202468872070
0.427078247070
0.004379272461
-0.042007446289
-0.233322143555
-0.386306762695
0.082122802734
0.287139892578
-0.097640991211
-0.057159423828
-0.365600585938
-0.005950927734
0.205734252930
-0.323684692383
0.419876098633
-0.244140625000
-0.064468383789
-0.106307983398
-0.108398437500
-0.495956420898
0.120376586914
0.044815063477
-0.246765136719
0.066925048828
0.381134033203
-0.066970825195
0.198730468750
0.314697265625
0.020935058594
-0.270614624023
-0.089385986328
0.148986816406
-0.152359008789
0.016876220703
0.356414794922
0.053787231445
0.337966918945
-0.220230102539
-0.006774902344
-0.136337280273
-0.373199462891
-0.453201293945
0.315277099609
0.413085937500
0.368637084961
-0.308776855469
-0.468948364258
0.488677978516
-0.143615722656
-0.299362182617
0.490341186523
-0.322463989258
-0.122207641602
-0.352066040039
-0.355743408203
-0.382781982422
0.215911865234
-0.375793457031
0.118728637695
-0.477432250977
-0.253234863281
0.066268920898
0.283386230469
0.384185791016
-0.244659423828
0.231277465820
-0.166824340820
-0.146804809570
-0.173934936523
0.096588134766
0.136840820312
0.382965087891
-0.084701538086
-0.048645019531
0.478378295898
0.469482421875
-0.266693115234
0.092742919922
0.328201293945
-0.160385131836
-0.188888549805
0.160827636719
0.446395874023
-0.463470458984
0.182327270508
0.326583862305
0.199981689453
0.423110961914
0.494140625000
0.006484985352
0.256500244141
-0.007141113281
-0.455749511719
-0.070236206055
-0.186889648438
0.129699707031
0.008865356445
-0.032836914062
0.340988159180
-0.056030273438
0.021514892578
0.156311035156
0.382385253906
-0.245056152344
-0.469924926758
-0.062652587891
0.279708862305
-0.394683837891
-0.134277343750
-0.310714721680
0.450363159180
0.332717895508
-0.406356811523
-0.482818603516
0.215988159180
0.345870971680
-0.052963256836
-0.138488769531
-0.052581787109
0.384719848633
-0.292617797852
-0.416198730469
0.329101562500
-0.096069335938
0.243209838867
0.277160644531
0.021820068359
0.250045776367
0.289901733398
-0.092086791992
0.134689331055
0.012069702148
-0.484359741211
0.419403076172
0.085388183594
0.399642944336
-0.321105957031
0.142807006836
0.112670898438
0.090377807617
0.300277709961
0.457077026367
0.203781127930
-0.102355957031
0.358947753906
-0.315841674805
0.183700561523
-0.346359252930
0.152404785156
0.081100463867
0.441070556641
0.312454223633
0.201385498047
0.295959472656
0.343673706055
-0.313629150391
-0.042221069336
0.323028564453
-0.112869262695
-0.306716918945
-0.291275024414
-0.341094970703
0.020462036133
-0.084609985352
-0.255157470703
0.165313720703
0.440704345703
-0.078125000000
0.392517089844
0.408218383789
0.087783813477
-0.267135620117
0.292419433594
0.371902465820
-0.243118286133
-0.406570434570
-0.093597412109
0.106628417969
0.470581054688
-0.182189941406
0.433303833008
0.260696411133
0.171203613281
-0.225021362305
0.173233032227
-0.290054321289
-0.256408691406
0.451797485352
0.487503051758
-0.039001464844
-0.216705322266
0.283706665039
0.468444824219
0.267410278320
0.338775634766
0.088836669922
0.419418334961
0.312637329102
-0.434204101562
-0.050628662109
-0.360382080078
-0.076675415039
-0.197174072266
0.443725585938
0.237548828125
-0.442001342773
-0.343688964844
0.438034057617
-0.261306762695
-0.287353515625
0.292175292969
0.181762695312
-0.265197753906
-0.206039428711
0.279296875000
0.036590576172
-0.456649780273
0.217590332031
0.146179199219
-0.427062988281
0.208709716797
-0.250961303711
-0.287551879883
0.303146362305
0.183425903320
-0.229064941406
-0.218353271484
-0.245544433594
-0.420669555664
0.302612304688
0.399215698242
-0.035491943359
0.439270019531
0.466903686523
0.093505859375
-0.133621215820
-0.481719970703
0.009002685547
0.452758789062
0.134246826172
0.285583496094
-0.083282470703
0.345764160156
-0.486862182617