-0.365051269531
-0.366394042969
-0.127120971680
-0.443420410156
0.298919677734
-0.132125854492
0.059677124023
-0.160858154297
-0.072311401367
-0.183883666992
0.316711425781
0.195007324219
-0.313400268555
0.270843505859
0.212356567383
0.446533203125
-0.354827880859
-0.335922241211
0.028808593750
-0.177154541016
0.321945190430
-0.349044799805
-0.490188598633
-0.136383056641
0.097335815430
-0.243362426758
-0.108520507812
0.281875610352
0.029861450195
-0.362243652344
0.461059570312
-0.186492919922
0.445404052734
-0.135650634766
-0.244308471680
-0.331283569336
-0.030181884766
-0.435668945312
-0.348632812500
-0.101379394531
-0.497955322266
0.094161987305
0.096618652344
-0.116363525391
-0.388351440430
-0.068969726562
-0.279678344727
0.024734497070
-0.293395996094
0.359024047852
-0.238403320312
-0.158004760742
0.020980834961
0.434844970703
-0.106658935547
0.213226318359
-0.143386840820
-0.038772583008
0.026306152344
-0.198440551758
-0.065521240234
0.333694458008
-0.319885253906
-0.034881591797
-0.222518920898
-0.454513549805
-0.390365600586
-0.074050903320
0.471862792969
-0.465148925781
-0.341247558594
-0.040542602539
0.383316040039
-0.458663940430
-0.441726684570
0.344360351562
0.159500122070
0.479522705078
0.256546020508
-0.483001708984
0.378997802734
-0.036346435547
0.378219604492
-0.119705200195
0.250488281250
-0.405960083008
-0.335632324219
0.463897705078
0.066970825195
-0.074935913086
0.294281005859
-0.063323974609
-0.075302124023
-0.150634765625
0.074111938477
-0.353469848633
-0.286682128906
0.255996704102
-0.232101440430
-0.211853027344
0.466384887695
-0.269012451172
-0.260437011719
0.125381469727
-0.477539062500
0.206359863281
0.299850463867
0.190780639648
0.372848510742
-0.125732421875
-0.354446411133
0.020965576172
0.434112548828
-0.153259277344
0.134887695312
0.490997314453
-0.201232910156
-0.174758911133
0.105514526367
0.076675415039
0.298233032227
-0.390335083008
-0.198135375977
0.448898315430
-0.104766845703
-0.062088012695
0.322906494141
-0.028778076172
-0.473678588867
-0.322311401367
0.386718750000
0.374649047852
0.027633666992
0.277603149414
0.174545288086
0.140747070312
0.032119750977
-0.214019775391
0.495285034180
0.339752197266
0.174438476562
0.430465698242
0.397125244141
0.361984252930
-0.129623413086
-0.103637695312
0.337158203125
-0.158645629883
0.442779541016
0.450408935547
0.398757934570
-0.387420654297
0.156951904297
0.089157104492
0.483810424805
-0.057189941406
0.222229003906
0.454010009766
-0.460800170898
-0.394027709961
0.485183715820
0.306961059570
0.464294433594
0.482101440430
-0.402252197266
0.195266723633
-0.200149536133
0.322860717773
-0.227127075195
0.007949829102
0.006347656250
0.377487182617
-0.217880249023
-0.291091918945
-0.388656616211
0.073150634766
-0.294525146484
-0.400283813477
0.225753784180
0.367935180664
-0.137329101562
-0.494644165039
0.200485229492
0.105682373047
0.140045166016
0.452056884766
0.282226562500
0.016586303711
0.149063110352
0.376754760742
-0.155838012695
0.024978637695