0.348312377930
0.170639038086
0.431640625000
0.325988769531
-0.425079345703
0.112762451172
-0.175674438477
-0.095748901367
-0.011077880859
-0.443679809570
-0.299667358398
-0.049316406250
-0.253479003906
0.172805786133
0.000930786133
-0.290603637695
-0.116607666016
-0.237091064453
0.363845825195
-0.493103027344
-0.072967529297
0.174194335938
-0.473617553711
0.302627563477
-0.320175170898
0.161544799805
0.038848876953
-0.298843383789
0.478210449219
-0.203384399414
0.330902099609
0.035003662109
0.357727050781
0.212387084961
0.454360961914
0.380096435547
0.349044799805
-0.394226074219
-0.130584716797
0.273681640625
-0.164749145508
-0.384902954102
0.255233764648
-0.156051635742
-0.218276977539
-0.283691406250
-0.014755249023
-0.494232177734
0.226791381836
0.020553588867
0.134384155273
-0.316238403320
-0.289581298828
-0.392791748047
-0.460403442383
0.433013916016
-0.459976196289
-0.421798706055
-0.202316284180
0.160430908203
0.452102661133
-0.494430541992
-0.313308715820
-0.288665771484
0.235855102539
-0.083358764648
-0.363876342773
-0.251083374023
0.409088134766
0.380416870117
-0.039520263672
0.411453247070
0.076950073242
-0.287765502930
0.361663818359
-0.312744140625
0.376754760742
-0.471649169922
-0.472030639648
-0.498825073242
0.381652832031
-0.241241455078
-0.313369750977
0.113418579102
0.263336181641
0.296005249023
-0.284912109375
-0.058273315430
-0.366027832031
-0.146179199219
0.216140747070
-0.017913818359
-0.363494873047
0.227005004883
0.000183105469
0.054016113281
0.347015380859
0.184463500977
-0.052932739258
0.239578247070
0.214080810547
-0.331008911133
-0.487228393555
0.238998413086
-0.112319946289
-0.111038208008
0.495880126953
-0.484115600586
-0.407348632812
-0.220535278320
0.467666625977
0.048812866211
-0.126358032227
0.493972778320
-0.451110839844
-0.173400878906
-0.092361450195
0.237991333008
-0.039672851562
-0.231323242188
-0.212677001953
-0.485961914062
-0.063430786133
-0.465484619141
0.085006713867
0.209854125977
0.459075927734
0.380401611328
0.498046875000
-0.368865966797
0.106811523438
-0.326171875000
0.204376220703
0.446777343750
-0.302536010742
-0.436477661133
0.157546997070
0.304565429688
0.445449829102
0.050018310547
0.074722290039
-0.203903198242
-0.280502319336
-0.120819091797
0.076370239258
-0.168121337891
0.215377807617
-0.361648559570
0.391098022461
0.462234497070
0.020614624023
-0.499176025391
-0.349868774414
-0.214096069336
-0.118759155273
0.462692260742
-0.453674316406
0.053634643555
-0.074508666992
-0.479598999023
-0.002639770508
-0.232635498047
-0.071853637695
-0.141265869141
-0.385696411133
-0.490600585938
-0.419525146484
-0.471511840820
-0.062637329102
0.005401611328
-0.241760253906
0.318191528320
0.268386840820
0.045928955078
-0.423309326172
0.498397827148
0.346298217773
-0.021102905273
-0.389282226562
0.404724121094
0.084060668945
0.195800781250
0.355697631836
-0.417327880859
-0.016189575195
-0.255081176758
-0.437896728516
-0.066757202148
-0.368972778320
0.248107910156
-0.122375488281
-0.166244506836
-0.146942138672
-0.371185302734
-0.085067749023
-0.360656738281
-0.293548583984
-0.130554199219
0.334381103516
-0.283798217773
-0.406707763672
-0.413162231445
-0.226882934570
-0.219024658203
-0.164367675781
0.183425903320
-0.173202514648
0.159942626953
-0.456420898438
-0.429641723633
0.222824096680
0.385162353516
-0.289199829102
-0.421569824219
0.461563110352
0.177566528320
0.432632446289
0.372375488281
0.439453125000
-0.155746459961
-0.323516845703
0.248825073242
-0.126708984375
0.186584472656
-0.099914550781
0.072128295898
-0.387954711914
0.011383056641
-0.448883056641
0.217514038086
0.357513427734
0.078475952148
-0.365020751953
-0.380706787109
0.472305297852
-0.127166748047
0.306716918945
-0.167541503906
-0.034240722656
0.234802246094
0.321456909180
0.411331176758
0.164260864258
-0.486633300781
-0.207489013672
-0.455566406250
0.439605712891
0.265579223633
0.169204711914
0.338073730469
-0.044540405273
0.190902709961
-0.484588623047
0.347900390625
0.446212768555
0.267715454102
0.427932739258
0.015319824219
0.392608642578
0.393035888672
0.484436035156
0.101867675781
0.323516845703
-0.433425903320
-0.382827758789
0.096237182617
0.473831176758
-0.160736083984
-0.329711914062
-0.388702392578
0.470077514648
0.036773681641
-0.156860351562
0.491622924805
-0.147811889648
0.333145141602
0.145645141602
-0.200531005859
-0.492156982422
0.362762451172
-0.221923828125
0.118225097656
0.430847167969
0.114974975586
-0.160888671875
-0.146820068359
0.138717651367
0.014297485352
-0.361221313477
0.092636108398
-0.180648803711
-0.135086059570
-0.206100463867
0.034332275391
-0.123947143555
0.072494506836
-0.345733642578
-0.182586669922
0.163909912109
-0.124816894531
-0.143493652344
0.157882690430
-0.012176513672
0.433258056641
-0.465454101562
-0.385345458984
0.084884643555
-0.333770751953
-0.430618286133
0.369400024414
-0.280853271484
0.249954223633
-0.223876953125
0.227127075195
-0.255966186523
0.442993164062
-0.355972290039
-0.086715698242
0.261459350586
-0.016250610352
0.480957031250
-0.032821655273
0.434799194336
-0.046264648438
0.255203247070
0.295455932617
0.106521606445
-0.256134033203
0.050323486328
-0.058044433594
0.127502441406
0.177719116211
-0.488845825195
0.495773315430
-0.375366210938
-0.251907348633
-0.076843261719
-0.371948242188
0.148437500000
-0.135528564453
-0.266204833984
0.461685180664
0.177963256836
-0.313125610352
0.378265380859
0.193038940430
0.117691040039
0.078002929688
-0.206008911133
0.060836791992
0.376174926758
0.144195556641
-0.318984985352
0.471313476562
0.372024536133
-0.070556640625
-0.246704101562
0.396972656250
0.110000610352
-0.303924560547
0.430130004883
0.222442626953
0.019088745117
-0.373184204102
-0.356826782227
0.439758300781
-0.329132080078
0.031494140625
0.124221801758
-0.274505615234
0.478271484375
-0.457077026367
0.489166259766
-0.297515869141
-0.480316162109
0.191085815430
-0.223159790039
0.231460571289
-0.423156738281
-0.344879150391
0.127059936523
0.174301147461
-0.185256958008
-0.044342041016
0.033599853516
-0.056747436523
-0.487945556641
0.060684204102
0.030761718750
0.131896972656
0.015350341797
-0.488327026367
0.252853393555
-0.267745971680
0.203353881836
-0.146301269531
-0.179077148438
-0.384155273438
-0.058990478516
0.463439941406
-0.488815307617
0.348724365234
-0.213684082031
-0.064636230469
-0.231689453125
0.130294799805
-0.202011108398
-0.372589111328
-0.127807617188
-0.254684448242
-0.336624145508
0.212631225586
0.153320312500
0.080825805664
-0.215652465820
0.009628295898
0.405120849609
-0.009307861328
0.098297119141
0.149581909180
0.075775146484
-0.476684570312
-0.230697631836
-0.495849609375
0.109588623047
0.380554199219
-0.409896850586
-0.298126220703
-0.036590576172
-0.162063598633
0.120452880859
-0.024612426758
0.011245727539
0.161621093750
-0.006225585938
-0.180267333984
-0.030426025391
-0.212585449219
0.409698486328
-0.430175781250
-0.179824829102
0.018585205078
0.490509033203
-0.128753662109
-0.494354248047
-0.460433959961
-0.107833862305
0.352188110352
-0.165374755859
0.142913818359
0.136032104492
-0.328384399414
0.020111083984
-0.475402832031
-0.063796997070
-0.380722045898
-0.119079589844
-0.274887084961
0.067047119141
-0.272125244141
-0.447052001953
0.102096557617
0.179077148438
0.271636962891
-0.213134765625
0.208648681641
0.439254760742
0.137847900391
0.075332641602
0.477874755859
0.154098510742
0.117553710938
-0.218231201172
-0.356185913086
0.161254882812
0.065521240234
0.442306518555
0.396484375000
0.417465209961
-0.007019042969
0.477920532227
-0.181884765625
-0.201309204102
-0.242813110352
-0.308395385742
0.034103393555
0.246810913086
-0.051879882812
0.093627929688
0.244247436523
0.041000366211
-0.424453735352
-0.425094604492
-0.411819458008
-0.160476684570
0.329208374023
0.247070312500
-0.029708862305
-0.183883666992
-0.182769775391
0.237442016602
0.019271850586
-0.219451904297
-0.436019897461
0.213012695312
0.288558959961
0.345932006836
0.373931884766
0.252227783203
-0.295516967773
0.267333984375
0.254486083984
0.479187011719
0.189941406250
-0.387603759766
0.466552734375
0.047195434570
-0.305725097656
-0.456619262695
-0.292846679688
0.283187866211
-0.234832763672
-0.327392578125
0.142852783203
0.367095947266
0.108123779297
0.139297485352
-0.076095581055
-0.168899536133
0.267242431641
0.035232543945
0.478683471680
0.266128540039
-0.482910156250
0.424392700195
0.041366577148
-0.471191406250
-0.011718750000
0.170715332031
0.066452026367
-0.325134277344
-0.046463012695
-0.272613525391
-0.081588745117
-0.200668334961
0.409774780273
-0.323181152344
-0.023330688477
-0.017471313477
0.476043701172
-0.477783203125
0.188842773438
-0.376037597656
0.048538208008
-0.201232910156
0.056121826172
-0.362075805664
-0.490524291992
-0.155960083008
-0.163925170898
-0.062622070312
-0.039550781250
0.353546142578
0.413421630859
-0.328445434570
0.490890502930
-0.025070190430
-0.374801635742
-0.380081176758
0.066360473633
0.308975219727
-0.405456542969
-0.355850219727
-0.037475585938
-0.070709228516
0.363906860352
0.021118164062
-0.496063232422
-0.498809814453
0.183334350586
0.200698852539
0.242218017578
0.028182983398
-0.163208007812
0.267135620117
0.041213989258
0.102096557617
-0.123870849609
0.391235351562
0.381576538086
0.289932250977
0.107467651367
0.177246093750
-0.022216796875
-0.029113769531
0.463577270508
-0.323593139648
-0.227249145508
-0.353637695312
-0.326644897461
-0.483398437500
0.364486694336
0.106826782227
0.469177246094
-0.177520751953
-0.211730957031
0.014846801758
0.178665161133
0.346359252930
0.347854614258
-0.284210205078
-0.046478271484
-0.082443237305
-0.335983276367
-0.122085571289
-0.092666625977
-0.304367065430
0.000946044922
-0.232879638672
0.446380615234
-0.202102661133
-0.403854370117
-0.320831298828
-0.300170898438
-0.339874267578
0.200881958008
-0.056320190430
-0.211868286133
-0.064498901367
-0.154144287109
-0.013626098633
-0.288543701172
-0.454421997070
-0.435134887695
0.406173706055
0.335922241211
0.227416992188
0.213638305664
0.408233642578
0.383972167969
-0.360275268555
-0.051391601562
0.371047973633
-0.087310791016
0.156906127930
-0.369766235352
0.440795898438
0.156661987305
0.354293823242
0.265838623047
0.178222656250
-0.430847167969
0.403488159180
0.029922485352
-0.050445556641
0.307189941406
-0.277740478516
0.238647460938
-0.186218261719
0.316390991211
0.147827148438
0.409957885742
-0.083480834961
-0.392028808594
-0.463989257812
-0.378265380859
-0.378143310547
0.339859008789
0.010879516602
-0.447204589844
0.018051147461
0.341186523438
0.105606079102
0.032928466797
0.377960205078
-0.448059082031
0.447113037109
0.336135864258
-0.417510986328
0.136032104492
0.367477416992
0.261993408203
0.286880493164
0.233581542969
-0.191284179688
0.206848144531
0.000961303711
0.320434570312
-0.371307373047
-0.259307861328
0.340591430664
-0.188049316406
0.373779296875
0.318862915039
0.071456909180
-0.443008422852
-0.183609008789
0.316070556641
0.229446411133
-0.303787231445
0.282882690430
0.184677124023
0.494735717773
-0.475067138672
0.126831054688
0.005020141602
0.447113037109
0.307067871094
-0.275604248047
0.405044555664
0.357391357422
0.096252441406
-0.206344604492
-0.393585205078
0.198776245117
0.371719360352
0.450759887695
0.211120605469
-0.272247314453
0.395889282227
-0.401672363281
-0.487503051758
-0.384109497070
-0.127807617188
-0.105621337891
-0.338165283203
0.152267456055
0.251495361328
0.432342529297
0.210723876953
-0.249420166016
-0.266311645508
0.446304321289
-0.354171752930
0.197204589844
0.462097167969
-0.278274536133
0.327590942383
-0.484130859375
-0.380920410156
0.299224853516
0.423385620117
-0.008300781250
0.032226562500
-0.079666137695
-0.401443481445
-0.004562377930
0.342437744141
-0.092742919922
-0.433349609375
0.443603515625
0.034179687500
-0.388442993164
0.039428710938
-0.286621093750
0.374267578125
-0.007308959961
0.237060546875
-0.271102905273
-0.435836791992
0.423309326172
0.229400634766
0.052230834961
-0.178665161133
0.280471801758
-0.364105224609
0.357742309570
0.044692993164
0.017547607422
-0.335372924805
0.245880126953
-0.384078979492
-0.029937744141
0.047195434570
0.225692749023
0.291320800781
-0.005340576172
-0.245452880859
0.092864990234
0.090209960938
-0.356399536133
0.117996215820
-0.046936035156
-0.232025146484
0.230346679688
0.156723022461
0.177139282227
-0.023178100586
0.482131958008
0.343887329102
-0.467178344727
0.301818847656
-0.381423950195
0.212188720703
0.322601318359
0.444000244141
0.315856933594
-0.109695434570
0.382797241211
0.165756225586
0.129119873047
0.470794677734
-0.413177490234
0.475875854492
-0.226135253906
0.018020629883
0.214462280273
-0.040969848633
-0.098846435547
0.079010009766
0.000732421875
0.482757568359
-0.271133422852
0.258087158203
-0.038177490234
-0.471725463867
-0.057403564453
-0.025772094727
0.366394042969
0.020660400391
0.434982299805
-0.411956787109
0.135864257812
0.444168090820
-0.499145507812
-0.084503173828
-0.388824462891
-0.014556884766
0.024612426758
0.098068237305
-0.364562988281
-0.348526000977