0.000165
0.000049
-0.000000
-0.001666
0.029944
-0.000000
-0.016249
0.287299
-0.000001
0.000033
0.000012
-0.000000
-0.014703
0.255911
-0.000001
0.000206
0.000057
-0.000000
0.000000
-0.000000
0.000000
-0.003379
0.061567
-0.000000
0.000000
-0.000000
-0.000000
0.000196
0.000055
-0.000000
-0.013237
0.232743
-0.000001
-0.000000
-0.000000
-0.000000
-0.000000
-0.000000
-0.000000
0.000111
0.000039
-0.000000
0.000000
-0.000000
-0.000000
0.000191
0.000054
-0.000000
-0.003417
0.059526
-0.000000
-0.000000
0.000000
0.000000
0.000022
0.000008
-0.000000
-0.001219
0.021229
-0.000000
-0.007821
0.136198
-0.000000
0.000029
0.000011
-0.000000
-0.000000
0.000000
0.000000
-0.004122
0.074596
-0.000000
0.000000
-0.000000
-0.000000
0.000000
0.000000
0.000000
0.000000
-0.000000
0.000000
-0.006506
0.113310
-0.000000
0.000000
-0.000000
-0.000000
0.000258
0.000066
-0.000000
-0.000510
0.008860
-0.000000
0.000029
0.000010
-0.000000
-0.000000
0.000000
-0.000000
-0.015451
0.268906
-0.000001
0.000097
0.000036
-0.000000
0.000082
0.000031
-0.000000
-0.001839
0.032039
-0.000000
0.000193
0.000054
-0.000000
0.000000
0.000000
-0.000000
-0.001995
0.035131
-0.000000
-0.013767
0.239651
-0.000001
0.000000
-0.000000
-0.000000
0.000000
-0.000000
-0.000000
-0.011986
0.213019
-0.000001
0.000047
0.000018
-0.000000
-0.002279
0.039738
-0.000000
0.000000
0.000000
0.000000
-0.001927
0.035141
-0.000000
-0.000002
0.000002
0.000000
0.000158
0.000048
-0.000000
-0.000002
0.000001
0.000000
-0.008254
0.143747
-0.000000
-0.020205
0.351559
-0.000001
-0.013586
0.236487
-0.000001
0.000000
0.000000
-0.000000
-0.012893
0.224448
-0.000001
-0.003783
0.066071
-0.000000
-0.010699
0.190509
-0.000001
0.000010
0.000003
-0.000000
-0.018677
0.325000
-0.000001
-0.018714
0.325998
-0.000001
0.000212
0.000058
-0.000000
-0.014705
0.255949
-0.000001
0.000000
-0.000000
0.000000
