0.000299
-0.002580
-0.026216
0.000061
-0.023710
0.000373
0.000000
-0.005259
0.000000
0.000356
-0.021271
-0.000000
-0.000000
0.000201
0.000000
0.000346
-0.005354
-0.000000
0.000039
-0.001895
-0.012429
0.000053
-0.000000
-0.006439
0.000000
0.000000
0.000000
-0.010300
0.000000
0.000467
-0.000791
0.000052
-0.000000
-0.024945
0.000176
0.000150
-0.002864
0.000349
0.000000
-0.003103
-0.022169
0.000000
0.000000
-0.019192
0.000085
-0.003556
0.000000
-0.002981
-0.000004
0.000287
-0.000003
-0.013134
-0.032767
-0.021870
0.000000
-0.020730
-0.005933
-0.017079
0.000019
-0.030258
-0.030316
0.000385
-0.023713
0.000000
-0.078445
-0.081324
-0.104960
-0.078683
-0.102454
-0.078371
-0.078744
-0.084002
-0.078744
-0.078388
-0.100015
-0.078744
-0.078744
-0.078543
-0.078744
-0.078398
-0.084098
-0.078744
-0.078705
-0.080638
-0.091173
-0.078690
-0.078744
-0.085182
-0.078744
-0.078744
-0.078744
-0.089043
-0.078744
-0.078277
-0.079534
-0.078692
-0.078744
-0.103688
-0.078568
-0.078594
-0.081608
-0.078394
-0.078744
-0.081847
-0.100913
-0.078744
-0.078744
-0.097936
-0.078659
-0.082299
-0.078744
-0.081725
-0.078747
-0.078457
-0.078747
-0.091877
-0.111511
-0.100613
-0.078744
-0.099473
-0.084677
-0.095823
-0.078725
-0.109002
-0.109060
-0.078359
-0.102457
-0.078744
0.000299
-0.002580
-0.026216
0.000061
-0.023710
0.000373
0.000000
-0.005259
0.000000
0.000356
-0.021271
-0.000000
-0.000000
0.000201
0.000000
0.000346
-0.005354
-0.000000
0.000039
-0.001895
-0.012429
0.000053
-0.000000
-0.006439
0.000000
0.000000
0.000000
-0.010300
0.000000
0.000467
-0.000791
0.000052
-0.000000
-0.024945
0.000176
0.000150
-0.002864
0.000349
0.000000
-0.003103
-0.022169
0.000000
0.000000
-0.019192
0.000085
-0.003556
0.000000
-0.002981
-0.000004
0.000287
-0.000003
-0.013134
-0.032767
-0.021870
0.000000
-0.020730
-0.005933
-0.017079
0.000019
-0.030258
-0.030316
0.000385
-0.023713
0.000000
0.000299
-0.002580
-0.026216
0.000061
-0.023710
0.000373
0.000000
-0.005259
0.000000
0.000356
-0.021271
-0.000000
-0.000000
0.000201
0.000000
0.000346
-0.005354
-0.000000
0.000039
-0.001895
-0.012429
0.000053
-0.000000
-0.006439
0.000000
0.000000
0.000000
-0.010300
0.000000
0.000467
-0.000791
0.000052
-0.000000
-0.024945
0.000176
0.000150
-0.002864
0.000349
0.000000
-0.003103
-0.022169
0.000000
0.000000
-0.019192
0.000085
-0.003556
0.000000
-0.002981
-0.000004
0.000287
-0.000003
-0.013134
-0.032767
-0.021870
0.000000
-0.020730
-0.005933
-0.017079
0.000019
-0.030258
-0.030316
0.000385
-0.023713
0.000000
0.000299
-0.002580
-0.026216
0.000061
-0.023710
0.000373
0.000000
-0.005259
0.000000
0.000356
-0.021271
-0.000000
-0.000000
0.000201
0.000000
0.000346
-0.005354
-0.000000
0.000039
-0.001895
-0.012429
0.000053
-0.000000
-0.006439
0.000000
0.000000
0.000000
-0.010300
0.000000
0.000467
-0.000791
0.000052
-0.000000
-0.024945
0.000176
0.000150
-0.002864
0.000349
0.000000
-0.003103
-0.022169
0.000000
0.000000
-0.019192
0.000085
-0.003556
0.000000
-0.002981
-0.000004
0.000287
-0.000003
-0.013134
-0.032767
-0.021870
0.000000
-0.020730
-0.005933
-0.017079
0.000019
-0.030258
-0.030316
0.000385
-0.023713
0.000000
0.000299
-0.002580
-0.026216
0.000061
-0.023710
0.000373
0.000000
-0.005259
0.000000
0.000356
-0.021271
-0.000000
-0.000000
0.000201
0.000000
0.000346
-0.005354
-0.000000
0.000039
-0.001895
-0.012429
0.000053
-0.000000
-0.006439
0.000000
0.000000
0.000000
-0.010300
0.000000
0.000467
-0.000791
0.000052
-0.000000
-0.024945
0.000176
0.000150
-0.002864
0.000349
0.000000
-0.003103
-0.022169
0.000000
0.000000
-0.019192
0.000085
-0.003556
0.000000
-0.002981
-0.000004
0.000287
-0.000003
-0.013134
-0.032767
-0.021870
0.000000
-0.020730
-0.005933
-0.017079
0.000019
-0.030258
-0.030316
0.000385
-0.023713
0.000000
0.000299
-0.002580
-0.026216
0.000061
-0.023710
0.000373
0.000000
-0.005259
0.000000
0.000356
-0.021271
-0.000000
-0.000000
0.000201
0.000000
0.000346
-0.005354
-0.000000
0.000039
-0.001895
-0.012429
0.000053
-0.000000
-0.006439
0.000000
0.000000
0.000000
-0.010300
0.000000
0.000467
-0.000791
0.000052
-0.000000
-0.024945
0.000176
0.000150
-0.002864
0.000349
0.000000
-0.003103
-0.022169
0.000000
0.000000
-0.019192
0.000085
-0.003556
0.000000
-0.002981
-0.000004
0.000287
-0.000003
-0.013134
-0.032767
-0.021870
0.000000
-0.020730
-0.005933
-0.017079
0.000019
-0.030258
-0.030316
0.000385
-0.023713
0.000000
0.000299
-0.002580
-0.026216
0.000061
-0.023710
0.000373
0.000000
-0.005259
0.000000
0.000356
-0.021271
-0.000000
-0.000000
0.000201
0.000000
0.000346
-0.005354
-0.000000
0.000039
-0.001895
-0.012429
0.000053
-0.000000
-0.006439
0.000000
0.000000
0.000000
-0.010300
0.000000
0.000467
-0.000791
0.000052
-0.000000
-0.024945
0.000176
0.000150
-0.002864
0.000349
0.000000
-0.003103
-0.022169
0.000000
0.000000
-0.019192
0.000085
-0.003556
0.000000
-0.002981
-0.000004
0.000287
-0.000003
-0.013134
-0.032767
-0.021870
0.000000
-0.020730
-0.005933
-0.017079
0.000019
-0.030258
-0.030316
0.000385
-0.023713
0.000000
0.000299
-0.002580
-0.026216
0.000061
-0.023710
0.000373
0.000000
-0.005259
0.000000
0.000356
-0.021271
-0.000000
-0.000000
0.000201
0.000000
0.000346
-0.005354
-0.000000
0.000039
-0.001895
-0.012429
0.000053
-0.000000
-0.006439
0.000000
0.000000
0.000000
-0.010300
0.000000
0.000467
-0.000791
0.000052
-0.000000
-0.024945
0.000176
0.000150
-0.002864
0.000349
0.000000
-0.003103
-0.022169
0.000000
0.000000
-0.019192
0.000085
-0.003556
0.000000
-0.002981
-0.000004
0.000287
-0.000003
-0.013134
-0.032767
-0.021870
0.000000
-0.020730
-0.005933
-0.017079
0.000019
-0.030258
-0.030316
0.000385
-0.023713
0.000000
0.000299
-0.002580
-0.026216
0.000061
-0.023710
0.000373
0.000000
-0.005259
0.000000
0.000356
-0.021271
-0.000000
-0.000000
0.000201
0.000000
0.000346
-0.005354
-0.000000
0.000039
-0.001895
-0.012429
0.000053
-0.000000
-0.006439
0.000000
0.000000
0.000000
-0.010300
0.000000
0.000467
-0.000791
0.000052
-0.000000
-0.024945
0.000176
0.000150
-0.002864
0.000349
0.000000
-0.003103
-0.022169
0.000000
0.000000
-0.019192
0.000085
-0.003556
0.000000
-0.002981
-0.000004
0.000287
-0.000003
-0.013134
-0.032767
-0.021870
0.000000
-0.020730
-0.005933
-0.017079
0.000019
-0.030258
-0.030316
0.000385
-0.023713
0.000000
0.000299
-0.002580
-0.026216
0.000061
-0.023710
0.000373
0.000000
-0.005259
0.000000
0.000356
-0.021271
-0.000000
-0.000000
0.000201
0.000000
0.000346
-0.005354
-0.000000
0.000039
-0.001895
-0.012429
0.000053
-0.000000
-0.006439
0.000000
0.000000
0.000000
-0.010300
0.000000
0.000467
-0.000791
0.000052
-0.000000
-0.024945
0.000176
0.000150
-0.002864
0.000349
0.000000
-0.003103
-0.022169
0.000000
0.000000
-0.019192
0.000085
-0.003556
0.000000
-0.002981
-0.000004
0.000287
-0.000003
-0.013134
-0.032767
-0.021870
0.000000
-0.020730
-0.005933
-0.017079
0.000019
-0.030258
-0.030316
0.000385
-0.023713
0.000000
0.000299
-0.002580
-0.026216
0.000061
-0.023710
0.000373
0.000000
-0.005259
0.000000
0.000356
-0.021271
-0.000000
-0.000000
0.000201
0.000000
0.000346
-0.005354
-0.000000
0.000039
-0.001895
-0.012429
0.000053
-0.000000
-0.006439
0.000000
0.000000
0.000000
-0.010300
0.000000
0.000467
-0.000791
0.000052
-0.000000
-0.024945
0.000176
0.000150
-0.002864
0.000349
0.000000
-0.003103
-0.022169
0.000000
0.000000
-0.019192
0.000085
-0.003556
0.000000
-0.002981
-0.000004
0.000287
-0.000003
-0.013134
-0.032767
-0.021870
0.000000
-0.020730
-0.005933
-0.017079
0.000019
-0.030258
-0.030316
0.000385
-0.023713
0.000000
0.000299
-0.002580
-0.026216
0.000061
-0.023710
0.000373
0.000000
-0.005259
0.000000
0.000356
-0.021271
-0.000000
-0.000000
0.000201
0.000000
0.000346
-0.005354
-0.000000
0.000039
-0.001895
-0.012429
0.000053
-0.000000
-0.006439
0.000000
0.000000
0.000000
-0.010300
0.000000
0.000467
-0.000791
0.000052
-0.000000
-0.024945
0.000176
0.000150
-0.002864
0.000349
0.000000
-0.003103
-0.022169
0.000000
0.000000
-0.019192
0.000085
-0.003556
0.000000
-0.002981
-0.000004
0.000287
-0.000003
-0.013134
-0.032767
-0.021870
0.000000
-0.020730
-0.005933
-0.017079
0.000019
-0.030258
-0.030316
0.000385
-0.023713
0.000000
0.000299
-0.002580
-0.026216
0.000061
-0.023710
0.000373
0.000000
-0.005259
0.000000
0.000356
-0.021271
-0.000000
-0.000000
0.000201
0.000000
0.000346
-0.005354
-0.000000
0.000039
-0.001895
-0.012429
0.000053
-0.000000
-0.006439
0.000000
0.000000
0.000000
-0.010300
0.000000
0.000467
-0.000791
0.000052
-0.000000
-0.024945
0.000176
0.000150
-0.002864
0.000349
0.000000
-0.003103
-0.022169
0.000000
0.000000
-0.019192
0.000085
-0.003556
0.000000
-0.002981
-0.000004
0.000287
-0.000003
-0.013134
-0.032767
-0.021870
0.000000
-0.020730
-0.005933
-0.017079
0.000019
-0.030258
-0.030316
0.000385
-0.023713
0.000000
0.000299
-0.002580
-0.026216
0.000061
-0.023710
0.000373
0.000000
-0.005259
0.000000
0.000356
-0.021271
-0.000000
-0.000000
0.000201
0.000000
0.000346
-0.005354
-0.000000
0.000039
-0.001895
-0.012429
0.000053
-0.000000
-0.006439
0.000000
0.000000
0.000000
-0.010300
0.000000
0.000467
-0.000791
0.000052
-0.000000
-0.024945
0.000176
0.000150
-0.002864
0.000349
0.000000
-0.003103
-0.022169
0.000000
0.000000
-0.019192
0.000085
-0.003556
0.000000
-0.002981
-0.000004
0.000287
-0.000003
-0.013134
-0.032767
-0.021870
0.000000
-0.020730
-0.005933
-0.017079
0.000019
-0.030258
-0.030316
0.000385
-0.023713
0.000000
0.000299
-0.002580
-0.026216
0.000061
-0.023710
0.000373
0.000000
-0.005259
0.000000
0.000356
-0.021271
-0.000000
-0.000000
0.000201
0.000000
0.000346
-0.005354
-0.000000
0.000039
-0.001895
-0.012429
0.000053
-0.000000
-0.006439
0.000000
0.000000
0.000000
-0.010300
0.000000
0.000467
-0.000791
0.000052
-0.000000
-0.024945
0.000176
0.000150
-0.002864
0.000349
0.000000
-0.003103
-0.022169
0.000000
0.000000
-0.019192
0.000085
-0.003556
0.000000
-0.002981
-0.000004
0.000287
-0.000003
-0.013134
-0.032767
-0.021870
0.000000
-0.020730
-0.005933
-0.017079
0.000019
-0.030258
-0.030316
0.000385
-0.023713
0.000000
0.000299
-0.002580
-0.026216
0.000061
-0.023710
0.000373
0.000000
-0.005259
0.000000
0.000356
-0.021271
-0.000000
-0.000000
0.000201
0.000000
0.000346
-0.005354
-0.000000
0.000039
-0.001895
-0.012429
0.000053
-0.000000
-0.006439
0.000000
0.000000
0.000000
-0.010300
0.000000
0.000467
-0.000791
0.000052
-0.000000
-0.024945
0.000176
0.000150
-0.002864
0.000349
0.000000
-0.003103
-0.022169
0.000000
0.000000
-0.019192
0.000085
-0.003556
0.000000
-0.002981
-0.000004
0.000287
-0.000003
-0.013134
-0.032767
-0.021870
0.000000
-0.020730
-0.005933
-0.017079
0.000019
-0.030258
-0.030316
0.000385
-0.023713
0.000000
0.000299
-0.002580
-0.026216
0.000061
-0.023710
0.000373
0.000000
-0.005259
0.000000
0.000356
-0.021271
-0.000000
-0.000000
0.000201
0.000000
0.000346
-0.005354
-0.000000
0.000039
-0.001895
-0.012429
0.000053
-0.000000
-0.006439
0.000000
0.000000
0.000000
-0.010300
0.000000
0.000467
-0.000791
0.000052
-0.000000
-0.024945
0.000176
0.000150
-0.002864
0.000349
0.000000
-0.003103
-0.022169
0.000000
0.000000
-0.019192
0.000085
-0.003556
0.000000
-0.002981
-0.000004
0.000287
-0.000003
-0.013134
-0.032767
-0.021870
0.000000
-0.020730
-0.005933
-0.017079
0.000019
-0.030258
-0.030316
0.000385
-0.023713
0.000000
0.000299
-0.002580
-0.026216
0.000061
-0.023710
0.000373
0.000000
-0.005259
0.000000
0.000356
-0.021271
-0.000000
-0.000000
0.000201
0.000000
0.000346
-0.005354
-0.000000
0.000039
-0.001895
-0.012429
0.000053
-0.000000
-0.006439
0.000000
0.000000
0.000000
-0.010300
0.000000
0.000467
-0.000791
0.000052
-0.000000
-0.024945
0.000176
0.000150
-0.002864
0.000349
0.000000
-0.003103
-0.022169
0.000000
0.000000
-0.019192
0.000085
-0.003556
0.000000
-0.002981
-0.000004
0.000287
-0.000003
-0.013134
-0.032767
-0.021870
0.000000
-0.020730
-0.005933
-0.017079
0.000019
-0.030258
-0.030316
0.000385
-0.023713
0.000000
0.000299
-0.002580
-0.026216
0.000061
-0.023710
0.000373
0.000000
-0.005259
0.000000
0.000356
-0.021271
-0.000000
-0.000000
0.000201
0.000000
0.000346
-0.005354
-0.000000
0.000039
-0.001895
-0.012429
0.000053
-0.000000
-0.006439
0.000000
0.000000
0.000000
-0.010300
0.000000
0.000467
-0.000791
0.000052
-0.000000
-0.024945
0.000176
0.000150
-0.002864
0.000349
0.000000
-0.003103
-0.022169
0.000000
0.000000
-0.019192
0.000085
-0.003556
0.000000
-0.002981
-0.000004
0.000287
-0.000003
-0.013134
-0.032767
-0.021870
0.000000
-0.020730
-0.005933
-0.017079
0.000019
-0.030258
-0.030316
0.000385
-0.023713
0.000000
0.000299
-0.002580
-0.026216
0.000061
-0.023710
0.000373
0.000000
-0.005259
0.000000
0.000356
-0.021271
-0.000000
-0.000000
0.000201
0.000000
0.000346
-0.005354
-0.000000
0.000039
-0.001895
-0.012429
0.000053
-0.000000
-0.006439
0.000000
0.000000
0.000000
-0.010300
0.000000
0.000467
-0.000791
0.000052
-0.000000
-0.024945
0.000176
0.000150
-0.002864
0.000349
0.000000
-0.003103
-0.022169
0.000000
0.000000
-0.019192
0.000085
-0.003556
0.000000
-0.002981
-0.000004
0.000287
-0.000003
-0.013134
-0.032767
-0.021870
0.000000
-0.020730
-0.005933
-0.017079
0.000019
-0.030258
-0.030316
0.000385
-0.023713
0.000000
0.000299
-0.002580
-0.026216
0.000061
-0.023710
0.000373
0.000000
-0.005259
0.000000
0.000356
-0.021271
-0.000000
-0.000000
0.000201
0.000000
0.000346
-0.005354
-0.000000
0.000039
-0.001895
-0.012429
0.000053
-0.000000
-0.006439
0.000000
0.000000
0.000000
-0.010300
0.000000
0.000467
-0.000791
0.000052
-0.000000
-0.024945
0.000176
0.000150
-0.002864
0.000349
0.000000
-0.003103
-0.022169
0.000000
0.000000
-0.019192
0.000085
-0.003556
0.000000
-0.002981
-0.000004
0.000287
-0.000003
-0.013134
-0.032767
-0.021870
0.000000
-0.020730
-0.005933
-0.017079
0.000019
-0.030258
-0.030316
0.000385
-0.023713
0.000000
0.000299
-0.002580
-0.026216
0.000061
-0.023710
0.000373
0.000000
-0.005259
0.000000
0.000356
-0.021271
-0.000000
-0.000000
0.000201
0.000000
0.000346
-0.005354
-0.000000
0.000039
-0.001895
-0.012429
0.000053
-0.000000
-0.006439
0.000000
0.000000
0.000000
-0.010300
0.000000
0.000467
-0.000791
0.000052
-0.000000
-0.024945
0.000176
0.000150
-0.002864
0.000349
0.000000
-0.003103
-0.022169
0.000000
0.000000
-0.019192
0.000085
-0.003556
0.000000
-0.002981
-0.000004
0.000287
-0.000003
-0.013134
-0.032767
-0.021870
0.000000
-0.020730
-0.005933
-0.017079
0.000019
-0.030258
-0.030316
0.000385
-0.023713
0.000000
0.000299
-0.002580
-0.026216
0.000061
-0.023710
0.000373
0.000000
-0.005259
0.000000
0.000356
-0.021271
-0.000000
-0.000000
0.000201
0.000000
0.000346
-0.005354
-0.000000
0.000039
-0.001895
-0.012429
0.000053
-0.000000
-0.006439
0.000000
0.000000
0.000000
-0.010300
0.000000
0.000467
-0.000791
0.000052
-0.000000
-0.024945
0.000176
0.000150
-0.002864
0.000349
0.000000
-0.003103
-0.022169
0.000000
0.000000
-0.019192
0.000085
-0.003556
0.000000
-0.002981
-0.000004
0.000287
-0.000003
-0.013134
-0.032767
-0.021870
0.000000
-0.020730
-0.005933
-0.017079
0.000019
-0.030258
-0.030316
0.000385
-0.023713
0.000000
0.000299
-0.002580
-0.026216
0.000061
-0.023710
0.000373
0.000000
-0.005259
0.000000
0.000356
-0.021271
-0.000000
-0.000000
0.000201
0.000000
0.000346
-0.005354
-0.000000
0.000039
-0.001895
-0.012429
0.000053
-0.000000
-0.006439
0.000000
0.000000
0.000000
-0.010300
0.000000
0.000467
-0.000791
0.000052
-0.000000
-0.024945
0.000176
0.000150
-0.002864
0.000349
0.000000
-0.003103
-0.022169
0.000000
0.000000
-0.019192
0.000085
-0.003556
0.000000
-0.002981
-0.000004
0.000287
-0.000003
-0.013134
-0.032767
-0.021870
0.000000
-0.020730
-0.005933
-0.017079
0.000019
-0.030258
-0.030316
0.000385
-0.023713
0.000000
0.000299
-0.002580
-0.026216
0.000061
-0.023710
0.000373
0.000000
-0.005259
0.000000
0.000356
-0.021271
-0.000000
-0.000000
0.000201
0.000000
0.000346
-0.005354
-0.000000
0.000039
-0.001895
-0.012429
0.000053
-0.000000
-0.006439
0.000000
0.000000
0.000000
-0.010300
0.000000
0.000467
-0.000791
0.000052
-0.000000
-0.024945
0.000176
0.000150
-0.002864
0.000349
0.000000
-0.003103
-0.022169
0.000000
0.000000
-0.019192
0.000085
-0.003556
0.000000
-0.002981
-0.000004
0.000287
-0.000003
-0.013134
-0.032767
-0.021870
0.000000
-0.020730
-0.005933
-0.017079
0.000019
-0.030258
-0.030316
0.000385
-0.023713
0.000000
0.000299
-0.002580
-0.026216
0.000061
-0.023710
0.000373
0.000000
-0.005259
0.000000
0.000356
-0.021271
-0.000000
-0.000000
0.000201
0.000000
0.000346
-0.005354
-0.000000
0.000039
-0.001895
-0.012429
0.000053
-0.000000
-0.006439
0.000000
0.000000
0.000000
-0.010300
0.000000
0.000467
-0.000791
0.000052
-0.000000
-0.024945
0.000176
0.000150
-0.002864
0.000349
0.000000
-0.003103
-0.022169
0.000000
0.000000
-0.019192
0.000085
-0.003556
0.000000
-0.002981
-0.000004
0.000287
-0.000003
-0.013134
-0.032767
-0.021870
0.000000
-0.020730
-0.005933
-0.017079
0.000019
-0.030258
-0.030316
0.000385
-0.023713
0.000000
0.000299
-0.002580
-0.026216
0.000061
-0.023710
0.000373
0.000000
-0.005259
0.000000
0.000356
-0.021271
-0.000000
-0.000000
0.000201
0.000000
0.000346
-0.005354
-0.000000
0.000039
-0.001895
-0.012429
0.000053
-0.000000
-0.006439
0.000000
0.000000
0.000000
-0.010300
0.000000
0.000467
-0.000791
0.000052
-0.000000
-0.024945
0.000176
0.000150
-0.002864
0.000349
0.000000
-0.003103
-0.022169
0.000000
0.000000
-0.019192
0.000085
-0.003556
0.000000
-0.002981
-0.000004
0.000287
-0.000003
-0.013134
-0.032767
-0.021870
0.000000
-0.020730
-0.005933
-0.017079
0.000019
-0.030258
-0.030316
0.000385
-0.023713
0.000000
0.000299
-0.002580
-0.026216
0.000061
-0.023710
0.000373
0.000000
-0.005259
0.000000
0.000356
-0.021271
-0.000000
-0.000000
0.000201
0.000000
0.000346
-0.005354
-0.000000
0.000039
-0.001895
-0.012429
0.000053
-0.000000
-0.006439
0.000000
0.000000
0.000000
-0.010300
0.000000
0.000467
-0.000791
0.000052
-0.000000
-0.024945
0.000176
0.000150
-0.002864
0.000349
0.000000
-0.003103
-0.022169
0.000000
0.000000
-0.019192
0.000085
-0.003556
0.000000
-0.002981
-0.000004
0.000287
-0.000003
-0.013134
-0.032767
-0.021870
0.000000
-0.020730
-0.005933
-0.017079
0.000019
-0.030258
-0.030316
0.000385
-0.023713
0.000000
0.000299
-0.002580
-0.026216
0.000061
-0.023710
0.000373
0.000000
-0.005259
0.000000
0.000356
-0.021271
-0.000000
-0.000000
0.000201
0.000000
0.000346
-0.005354
-0.000000
0.000039
-0.001895
-0.012429
0.000053
-0.000000
-0.006439
0.000000
0.000000
0.000000
-0.010300
0.000000
0.000467
-0.000791
0.000052
-0.000000
-0.024945
0.000176
0.000150
-0.002864
0.000349
0.000000
-0.003103
-0.022169
0.000000
0.000000
-0.019192
0.000085
-0.003556
0.000000
-0.002981
-0.000004
0.000287
-0.000003
-0.013134
-0.032767
-0.021870
0.000000
-0.020730
-0.005933
-0.017079
0.000019
-0.030258
-0.030316
0.000385
-0.023713
0.000000
0.000299
-0.002580
-0.026216
0.000061
-0.023710
0.000373
0.000000
-0.005259
0.000000
0.000356
-0.021271
-0.000000
-0.000000
0.000201
0.000000
0.000346
-0.005354
-0.000000
0.000039
-0.001895
-0.012429
0.000053
-0.000000
-0.006439
0.000000
0.000000
0.000000
-0.010300
0.000000
0.000467
-0.000791
0.000052
-0.000000
-0.024945
0.000176
0.000150
-0.002864
0.000349
0.000000
-0.003103
-0.022169
0.000000
0.000000
-0.019192
0.000085
-0.003556
0.000000
-0.002981
-0.000004
0.000287
-0.000003
-0.013134
-0.032767
-0.021870
0.000000
-0.020730
-0.005933
-0.017079
0.000019
-0.030258
-0.030316
0.000385
-0.023713
0.000000
0.000299
-0.002580
-0.026216
0.000061
-0.023710
0.000373
0.000000
-0.005259
0.000000
0.000356
-0.021271
-0.000000
-0.000000
0.000201
0.000000
0.000346
-0.005354
-0.000000
0.000039
-0.001895
-0.012429
0.000053
-0.000000
-0.006439
0.000000
0.000000
0.000000
-0.010300
0.000000
0.000467
-0.000791
0.000052
-0.000000
-0.024945
0.000176
0.000150
-0.002864
0.000349
0.000000
-0.003103
-0.022169
0.000000
0.000000
-0.019192
0.000085
-0.003556
0.000000
-0.002981
-0.000004
0.000287
-0.000003
-0.013134
-0.032767
-0.021870
0.000000
-0.020730
-0.005933
-0.017079
0.000019
-0.030258
-0.030316
0.000385
-0.023713
0.000000
0.000299
-0.002580
-0.026216
0.000061
-0.023710
0.000373
0.000000
-0.005259
0.000000
0.000356
-0.021271
-0.000000
-0.000000
0.000201
0.000000
0.000346
-0.005354
-0.000000
0.000039
-0.001895
-0.012429
0.000053
-0.000000
-0.006439
0.000000
0.000000
0.000000
-0.010300
0.000000
0.000467
-0.000791
0.000052
-0.000000
-0.024945
0.000176
0.000150
-0.002864
0.000349
0.000000
-0.003103
-0.022169
0.000000
0.000000
-0.019192
0.000085
-0.003556
0.000000
-0.002981
-0.000004
0.000287
-0.000003
-0.013134
-0.032767
-0.021870
0.000000
-0.020730
-0.005933
-0.017079
0.000019
-0.030258
-0.030316
0.000385
-0.023713
0.000000
0.000299
-0.002580
-0.026216
0.000061
-0.023710
0.000373
0.000000
-0.005259
0.000000
0.000356
-0.021271
-0.000000
-0.000000
0.000201
0.000000
0.000346
-0.005354
-0.000000
0.000039
-0.001895
-0.012429
0.000053
-0.000000
-0.006439
0.000000
0.000000
0.000000
-0.010300
0.000000
0.000467
-0.000791
0.000052
-0.000000
-0.024945
0.000176
0.000150
-0.002864
0.000349
0.000000
-0.003103
-0.022169
0.000000
0.000000
-0.019192
0.000085
-0.003556
0.000000
-0.002981
-0.000004
0.000287
-0.000003
-0.013134
-0.032767
-0.021870
0.000000
-0.020730
-0.005933
-0.017079
0.000019
-0.030258
-0.030316
0.000385
-0.023713
0.000000
0.000299
-0.002580
-0.026216
0.000061
-0.023710
0.000373
0.000000
-0.005259
0.000000
0.000356
-0.021271
-0.000000
-0.000000
0.000201
0.000000
0.000346
-0.005354
-0.000000
0.000039
-0.001895
-0.012429
0.000053
-0.000000
-0.006439
0.000000
0.000000
0.000000
-0.010300
0.000000
0.000467
-0.000791
0.000052
-0.000000
-0.024945
0.000176
0.000150
-0.002864
0.000349
0.000000
-0.003103
-0.022169
0.000000
0.000000
-0.019192
0.000085
-0.003556
0.000000
-0.002981
-0.000004
0.000287
-0.000003
-0.013134
-0.032767
-0.021870
0.000000
-0.020730
-0.005933
-0.017079
0.000019
-0.030258
-0.030316
0.000385
-0.023713
0.000000
0.000299
-0.002580
-0.026216
0.000061
-0.023710
0.000373
0.000000
-0.005259
0.000000
0.000356
-0.021271
-0.000000
-0.000000
0.000201
0.000000
0.000346
-0.005354
-0.000000
0.000039
-0.001895
-0.012429
0.000053
-0.000000
-0.006439
0.000000
0.000000
0.000000
-0.010300
0.000000
0.000467
-0.000791
0.000052
-0.000000
-0.024945
0.000176
0.000150
-0.002864
0.000349
0.000000
-0.003103
-0.022169
0.000000
0.000000
-0.019192
0.000085
-0.003556
0.000000
-0.002981
-0.000004
0.000287
-0.000003
-0.013134
-0.032767
-0.021870
0.000000
-0.020730
-0.005933
-0.017079
0.000019
-0.030258
-0.030316
0.000385
-0.023713
0.000000
0.000299
-0.002580
-0.026216
0.000061
-0.023710
0.000373
0.000000
-0.005259
0.000000
0.000356
-0.021271
-0.000000
-0.000000
0.000201
0.000000
0.000346
-0.005354
-0.000000
0.000039
-0.001895
-0.012429
0.000053
-0.000000
-0.006439
0.000000
0.000000
0.000000
-0.010300
0.000000
0.000467
-0.000791
0.000052
-0.000000
-0.024945
0.000176
0.000150
-0.002864
0.000349
0.000000
-0.003103
-0.022169
0.000000
0.000000
-0.019192
0.000085
-0.003556
0.000000
-0.002981
-0.000004
0.000287
-0.000003
-0.013134
-0.032767
-0.021870
0.000000
-0.020730
-0.005933
-0.017079
0.000019
-0.030258
-0.030316
0.000385
-0.023713
0.000000
0.000299
-0.002580
-0.026216
0.000061
-0.023710
0.000373
0.000000
-0.005259
0.000000
0.000356
-0.021271
-0.000000
-0.000000
0.000201
0.000000
0.000346
-0.005354
-0.000000
0.000039
-0.001895
-0.012429
0.000053
-0.000000
-0.006439
0.000000
0.000000
0.000000
-0.010300
0.000000
0.000467
-0.000791
0.000052
-0.000000
-0.024945
0.000176
0.000150
-0.002864
0.000349
0.000000
-0.003103
-0.022169
0.000000
0.000000
-0.019192
0.000085
-0.003556
0.000000
-0.002981
-0.000004
0.000287
-0.000003
-0.013134
-0.032767
-0.021870
0.000000
-0.020730
-0.005933
-0.017079
0.000019
-0.030258
-0.030316
0.000385
-0.023713
0.000000
0.000299
-0.002580
-0.026216
0.000061
-0.023710
0.000373
0.000000
-0.005259
0.000000
0.000356
-0.021271
-0.000000
-0.000000
0.000201
0.000000
0.000346
-0.005354
-0.000000
0.000039
-0.001895
-0.012429
0.000053
-0.000000
-0.006439
0.000000
0.000000
0.000000
-0.010300
0.000000
0.000467
-0.000791
0.000052
-0.000000
-0.024945
0.000176
0.000150
-0.002864
0.000349
0.000000
-0.003103
-0.022169
0.000000
0.000000
-0.019192
0.000085
-0.003556
0.000000
-0.002981
-0.000004
0.000287
-0.000003
-0.013134
-0.032767
-0.021870
0.000000
-0.020730
-0.005933
-0.017079
0.000019
-0.030258
-0.030316
0.000385
-0.023713
0.000000
0.000299
-0.002580
-0.026216
0.000061
-0.023710
0.000373
0.000000
-0.005259
0.000000
0.000356
-0.021271
-0.000000
-0.000000
0.000201
0.000000
0.000346
-0.005354
-0.000000
0.000039
-0.001895
-0.012429
0.000053
-0.000000
-0.006439
0.000000
0.000000
0.000000
-0.010300
0.000000
0.000467
-0.000791
0.000052
-0.000000
-0.024945
0.000176
0.000150
-0.002864
0.000349
0.000000
-0.003103
-0.022169
0.000000
0.000000
-0.019192
0.000085
-0.003556
0.000000
-0.002981
-0.000004
0.000287
-0.000003
-0.013134
-0.032767
-0.021870
0.000000
-0.020730
-0.005933
-0.017079
0.000019
-0.030258
-0.030316
0.000385
-0.023713
0.000000
0.000299
-0.002580
-0.026216
0.000061
-0.023710
0.000373
0.000000
-0.005259
0.000000
0.000356
-0.021271
-0.000000
-0.000000
0.000201
0.000000
0.000346
-0.005354
-0.000000
0.000039
-0.001895
-0.012429
0.000053
-0.000000
-0.006439
0.000000
0.000000
0.000000
-0.010300
0.000000
0.000467
-0.000791
0.000052
-0.000000
-0.024945
0.000176
0.000150
-0.002864
0.000349
0.000000
-0.003103
-0.022169
0.000000
0.000000
-0.019192
0.000085
-0.003556
0.000000
-0.002981
-0.000004
0.000287
-0.000003
-0.013134
-0.032767
-0.021870
0.000000
-0.020730
-0.005933
-0.017079
0.000019
-0.030258
-0.030316
0.000385
-0.023713
0.000000
0.000299
-0.002580
-0.026216
0.000061
-0.023710
0.000373
0.000000
-0.005259
0.000000
0.000356
-0.021271
-0.000000
-0.000000
0.000201
0.000000
0.000346
-0.005354
-0.000000
0.000039
-0.001895
-0.012429
0.000053
-0.000000
-0.006439
0.000000
0.000000
0.000000
-0.010300
0.000000
0.000467
-0.000791
0.000052
-0.000000
-0.024945
0.000176
0.000150
-0.002864
0.000349
0.000000
-0.003103
-0.022169
0.000000
0.000000
-0.019192
0.000085
-0.003556
0.000000
-0.002981
-0.000004
0.000287
-0.000003
-0.013134
-0.032767
-0.021870
0.000000
-0.020730
-0.005933
-0.017079
0.000019
-0.030258
-0.030316
0.000385
-0.023713
0.000000
0.000299
-0.002580
-0.026216
0.000061
-0.023710
0.000373
0.000000
-0.005259
0.000000
0.000356
-0.021271
-0.000000
-0.000000
0.000201
0.000000
0.000346
-0.005354
-0.000000
0.000039
-0.001895
-0.012429
0.000053
-0.000000
-0.006439
0.000000
0.000000
0.000000
-0.010300
0.000000
0.000467
-0.000791
0.000052
-0.000000
-0.024945
0.000176
0.000150
-0.002864
0.000349
0.000000
-0.003103
-0.022169
0.000000
0.000000
-0.019192
0.000085
-0.003556
0.000000
-0.002981
-0.000004
0.000287
-0.000003
-0.013134
-0.032767
-0.021870
0.000000
-0.020730
-0.005933
-0.017079
0.000019
-0.030258
-0.030316
0.000385
-0.023713
0.000000
0.000299
-0.002580
-0.026216
0.000061
-0.023710
0.000373
0.000000
-0.005259
0.000000
0.000356
-0.021271
-0.000000
-0.000000
0.000201
0.000000
0.000346
-0.005354
-0.000000
0.000039
-0.001895
-0.012429
0.000053
-0.000000
-0.006439
0.000000
0.000000
0.000000
-0.010300
0.000000
0.000467
-0.000791
0.000052
-0.000000
-0.024945
0.000176
0.000150
-0.002864
0.000349
0.000000
-0.003103
-0.022169
0.000000
0.000000
-0.019192
0.000085
-0.003556
0.000000
-0.002981
-0.000004
0.000287
-0.000003
-0.013134
-0.032767
-0.021870
0.000000
-0.020730
-0.005933
-0.017079
0.000019
-0.030258
-0.030316
0.000385
-0.023713
0.000000
0.000299
-0.002580
-0.026216
0.000061
-0.023710
0.000373
0.000000
-0.005259
0.000000
0.000356
-0.021271
-0.000000
-0.000000
0.000201
0.000000
0.000346
-0.005354
-0.000000
0.000039
-0.001895
-0.012429
0.000053
-0.000000
-0.006439
0.000000
0.000000
0.000000
-0.010300
0.000000
0.000467
-0.000791
0.000052
-0.000000
-0.024945
0.000176
0.000150
-0.002864
0.000349
0.000000
-0.003103
-0.022169
0.000000
0.000000
-0.019192
0.000085
-0.003556
0.000000
-0.002981
-0.000004
0.000287
-0.000003
-0.013134
-0.032767
-0.021870
0.000000
-0.020730
-0.005933
-0.017079
0.000019
-0.030258
-0.030316
0.000385
-0.023713
0.000000
0.000299
-0.002580
-0.026216
0.000061
-0.023710
0.000373
0.000000
-0.005259
0.000000
0.000356
-0.021271
-0.000000
-0.000000
0.000201
0.000000
0.000346
-0.005354
-0.000000
0.000039
-0.001895
-0.012429
0.000053
-0.000000
-0.006439
0.000000
0.000000
0.000000
-0.010300
0.000000
0.000467
-0.000791
0.000052
-0.000000
-0.024945
0.000176
0.000150
-0.002864
0.000349
0.000000
-0.003103
-0.022169
0.000000
0.000000
-0.019192
0.000085
-0.003556
0.000000
-0.002981
-0.000004
0.000287
-0.000003
-0.013134
-0.032767
-0.021870
0.000000
-0.020730
-0.005933
-0.017079
0.000019
-0.030258
-0.030316
0.000385
-0.023713
0.000000
0.000299
-0.002580
-0.026216
0.000061
-0.023710
0.000373
0.000000
-0.005259
0.000000
0.000356
-0.021271
-0.000000
-0.000000
0.000201
0.000000
0.000346
-0.005354
-0.000000
0.000039
-0.001895
-0.012429
0.000053
-0.000000
-0.006439
0.000000
0.000000
0.000000
-0.010300
0.000000
0.000467
-0.000791
0.000052
-0.000000
-0.024945
0.000176
0.000150
-0.002864
0.000349
0.000000
-0.003103
-0.022169
0.000000
0.000000
-0.019192
0.000085
-0.003556
0.000000
-0.002981
-0.000004
0.000287
-0.000003
-0.013134
-0.032767
-0.021870
0.000000
-0.020730
-0.005933
-0.017079
0.000019
-0.030258
-0.030316
0.000385
-0.023713
0.000000
0.000299
-0.002580
-0.026216
0.000061
-0.023710
0.000373
0.000000
-0.005259
0.000000
0.000356
-0.021271
-0.000000
-0.000000
0.000201
0.000000
0.000346
-0.005354
-0.000000
0.000039
-0.001895
-0.012429
0.000053
-0.000000
-0.006439
0.000000
0.000000
0.000000
-0.010300
0.000000
0.000467
-0.000791
0.000052
-0.000000
-0.024945
0.000176
0.000150
-0.002864
0.000349
0.000000
-0.003103
-0.022169
0.000000
0.000000
-0.019192
0.000085
-0.003556
0.000000
-0.002981
-0.000004
0.000287
-0.000003
-0.013134
-0.032767
-0.021870
0.000000
-0.020730
-0.005933
-0.017079
0.000019
-0.030258
-0.030316
0.000385
-0.023713
0.000000
0.000299
-0.002580
-0.026216
0.000061
-0.023710
0.000373
0.000000
-0.005259
0.000000
0.000356
-0.021271
-0.000000
-0.000000
0.000201
0.000000
0.000346
-0.005354
-0.000000
0.000039
-0.001895
-0.012429
0.000053
-0.000000
-0.006439
0.000000
0.000000
0.000000
-0.010300
0.000000
0.000467
-0.000791
0.000052
-0.000000
-0.024945
0.000176
0.000150
-0.002864
0.000349
0.000000
-0.003103
-0.022169
0.000000
0.000000
-0.019192
0.000085
-0.003556
0.000000
-0.002981
-0.000004
0.000287
-0.000003
-0.013134
-0.032767
-0.021870
0.000000
-0.020730
-0.005933
-0.017079
0.000019
-0.030258
-0.030316
0.000385
-0.023713
0.000000
0.000299
-0.002580
-0.026216
0.000061
-0.023710
0.000373
0.000000
-0.005259
0.000000
0.000356
-0.021271
-0.000000
-0.000000
0.000201
0.000000
0.000346
-0.005354
-0.000000
0.000039
-0.001895
-0.012429
0.000053
-0.000000
-0.006439
0.000000
0.000000
0.000000
-0.010300
0.000000
0.000467
-0.000791
0.000052
-0.000000
-0.024945
0.000176
0.000150
-0.002864
0.000349
0.000000
-0.003103
-0.022169
0.000000
0.000000
-0.019192
0.000085
-0.003556
0.000000
-0.002981
-0.000004
0.000287
-0.000003
-0.013134
-0.032767
-0.021870
0.000000
-0.020730
-0.005933
-0.017079
0.000019
-0.030258
-0.030316
0.000385
-0.023713
0.000000
0.000299
-0.002580
-0.026216
0.000061
-0.023710
0.000373
0.000000
-0.005259
0.000000
0.000356
-0.021271
-0.000000
-0.000000
0.000201
0.000000
0.000346
-0.005354
-0.000000
0.000039
-0.001895
-0.012429
0.000053
-0.000000
-0.006439
0.000000
0.000000
0.000000
-0.010300
0.000000
0.000467
-0.000791
0.000052
-0.000000
-0.024945
0.000176
0.000150
-0.002864
0.000349
0.000000
-0.003103
-0.022169
0.000000
0.000000
-0.019192
0.000085
-0.003556
0.000000
-0.002981
-0.000004
0.000287
-0.000003
-0.013134
-0.032767
-0.021870
0.000000
-0.020730
-0.005933
-0.017079
0.000019
-0.030258
-0.030316
0.000385
-0.023713
0.000000
0.000299
-0.002580
-0.026216
0.000061
-0.023710
0.000373
0.000000
-0.005259
0.000000
0.000356
-0.021271
-0.000000
-0.000000
0.000201
0.000000
0.000346
-0.005354
-0.000000
0.000039
-0.001895
-0.012429
0.000053
-0.000000
-0.006439
0.000000
0.000000
0.000000
-0.010300
0.000000
0.000467
-0.000791
0.000052
-0.000000
-0.024945
0.000176
0.000150
-0.002864
0.000349
0.000000
-0.003103
-0.022169
0.000000
0.000000
-0.019192
0.000085
-0.003556
0.000000
-0.002981
-0.000004
0.000287
-0.000003
-0.013134
-0.032767
-0.021870
0.000000
-0.020730
-0.005933
-0.017079
0.000019
-0.030258
-0.030316
0.000385
-0.023713
0.000000
0.000299
-0.002580
-0.026216
0.000061
-0.023710
0.000373
0.000000
-0.005259
0.000000
0.000356
-0.021271
-0.000000
-0.000000
0.000201
0.000000
0.000346
-0.005354
-0.000000
0.000039
-0.001895
-0.012429
0.000053
-0.000000
-0.006439
0.000000
0.000000
0.000000
-0.010300
0.000000
0.000467
-0.000791
0.000052
-0.000000
-0.024945
0.000176
0.000150
-0.002864
0.000349
0.000000
-0.003103
-0.022169
0.000000
0.000000
-0.019192
0.000085
-0.003556
0.000000
-0.002981
-0.000004
0.000287
-0.000003
-0.013134
-0.032767
-0.021870
0.000000
-0.020730
-0.005933
-0.017079
0.000019
-0.030258
-0.030316
0.000385
-0.023713
0.000000
0.000299
-0.002580
-0.026216
0.000061
-0.023710
0.000373
0.000000
-0.005259
0.000000
0.000356
-0.021271
-0.000000
-0.000000
0.000201
0.000000
0.000346
-0.005354
-0.000000
0.000039
-0.001895
-0.012429
0.000053
-0.000000
-0.006439
0.000000
0.000000
0.000000
-0.010300
0.000000
0.000467
-0.000791
0.000052
-0.000000
-0.024945
0.000176
0.000150
-0.002864
0.000349
0.000000
-0.003103
-0.022169
0.000000
0.000000
-0.019192
0.000085
-0.003556
0.000000
-0.002981
-0.000004
0.000287
-0.000003
-0.013134
-0.032767
-0.021870
0.000000
-0.020730
-0.005933
-0.017079
0.000019
-0.030258
-0.030316
0.000385
-0.023713
0.000000
0.000299
-0.002580
-0.026216
0.000061
-0.023710
0.000373
0.000000
-0.005259
0.000000
0.000356
-0.021271
-0.000000
-0.000000
0.000201
0.000000
0.000346
-0.005354
-0.000000
0.000039
-0.001895
-0.012429
0.000053
-0.000000
-0.006439
0.000000
0.000000
0.000000
-0.010300
0.000000
0.000467
-0.000791
0.000052
-0.000000
-0.024945
0.000176
0.000150
-0.002864
0.000349
0.000000
-0.003103
-0.022169
0.000000
0.000000
-0.019192
0.000085
-0.003556
0.000000
-0.002981
-0.000004
0.000287
-0.000003
-0.013134
-0.032767
-0.021870
0.000000
-0.020730
-0.005933
-0.017079
0.000019
-0.030258
-0.030316
0.000385
-0.023713
0.000000
0.000299
-0.002580
-0.026216
0.000061
-0.023710
0.000373
0.000000
-0.005259
0.000000
0.000356
-0.021271
-0.000000
-0.000000
0.000201
0.000000
0.000346
-0.005354
-0.000000
0.000039
-0.001895
-0.012429
0.000053
-0.000000
-0.006439
0.000000
0.000000
0.000000
-0.010300
0.000000
0.000467
-0.000791
0.000052
-0.000000
-0.024945
0.000176
0.000150
-0.002864
0.000349
0.000000
-0.003103
-0.022169
0.000000
0.000000
-0.019192
0.000085
-0.003556
0.000000
-0.002981
-0.000004
0.000287
-0.000003
-0.013134
-0.032767
-0.021870
0.000000
-0.020730
-0.005933
-0.017079
0.000019
-0.030258
-0.030316
0.000385
-0.023713
0.000000
0.000299
-0.002580
-0.026216
0.000061
-0.023710
0.000373
0.000000
-0.005259
0.000000
0.000356
-0.021271
-0.000000
-0.000000
0.000201
0.000000
0.000346
-0.005354
-0.000000
0.000039
-0.001895
-0.012429
0.000053
-0.000000
-0.006439
0.000000
0.000000
0.000000
-0.010300
0.000000
0.000467
-0.000791
0.000052
-0.000000
-0.024945
0.000176
0.000150
-0.002864
0.000349
0.000000
-0.003103
-0.022169
0.000000
0.000000
-0.019192
0.000085
-0.003556
0.000000
-0.002981
-0.000004
0.000287
-0.000003
-0.013134
-0.032767
-0.021870
0.000000
-0.020730
-0.005933
-0.017079
0.000019
-0.030258
-0.030316
0.000385
-0.023713
0.000000
0.000299
-0.002580
-0.026216
0.000061
-0.023710
0.000373
0.000000
-0.005259
0.000000
0.000356
-0.021271
-0.000000
-0.000000
0.000201
0.000000
0.000346
-0.005354
-0.000000
0.000039
-0.001895
-0.012429
0.000053
-0.000000
-0.006439
0.000000
0.000000
0.000000
-0.010300
0.000000
0.000467
-0.000791
0.000052
-0.000000
-0.024945
0.000176
0.000150
-0.002864
0.000349
0.000000
-0.003103
-0.022169
0.000000
0.000000
-0.019192
0.000085
-0.003556
0.000000
-0.002981
-0.000004
0.000287
-0.000003
-0.013134
-0.032767
-0.021870
0.000000
-0.020730
-0.005933
-0.017079
0.000019
-0.030258
-0.030316
0.000385
-0.023713
0.000000
0.000299
-0.002580
-0.026216
0.000061
-0.023710
0.000373
0.000000
-0.005259
0.000000
0.000356
-0.021271
-0.000000
-0.000000
0.000201
0.000000
0.000346
-0.005354
-0.000000
0.000039
-0.001895
-0.012429
0.000053
-0.000000
-0.006439
0.000000
0.000000
0.000000
-0.010300
0.000000
0.000467
-0.000791
0.000052
-0.000000
-0.024945
0.000176
0.000150
-0.002864
0.000349
0.000000
-0.003103
-0.022169
0.000000
0.000000
-0.019192
0.000085
-0.003556
0.000000
-0.002981
-0.000004
0.000287
-0.000003
-0.013134
-0.032767
-0.021870
0.000000
-0.020730
-0.005933
-0.017079
0.000019
-0.030258
-0.030316
0.000385
-0.023713
0.000000
0.000299
-0.002580
-0.026216
0.000061
-0.023710
0.000373
0.000000
-0.005259
0.000000
0.000356
-0.021271
-0.000000
-0.000000
0.000201
0.000000
0.000346
-0.005354
-0.000000
0.000039
-0.001895
-0.012429
0.000053
-0.000000
-0.006439
0.000000
0.000000
0.000000
-0.010300
0.000000
0.000467
-0.000791
0.000052
-0.000000
-0.024945
0.000176
0.000150
-0.002864
0.000349
0.000000
-0.003103
-0.022169
0.000000
0.000000
-0.019192
0.000085
-0.003556
0.000000
-0.002981
-0.000004
0.000287
-0.000003
-0.013134
-0.032767
-0.021870
0.000000
-0.020730
-0.005933
-0.017079
0.000019
-0.030258
-0.030316
0.000385
-0.023713
0.000000
0.000299
-0.002580
-0.026216
0.000061
-0.023710
0.000373
0.000000
-0.005259
0.000000
0.000356
-0.021271
-0.000000
-0.000000
0.000201
0.000000
0.000346
-0.005354
-0.000000
0.000039
-0.001895
-0.012429
0.000053
-0.000000
-0.006439
0.000000
0.000000
0.000000
-0.010300
0.000000
0.000467
-0.000791
0.000052
-0.000000
-0.024945
0.000176
0.000150
-0.002864
0.000349
0.000000
-0.003103
-0.022169
0.000000
0.000000
-0.019192
0.000085
-0.003556
0.000000
-0.002981
-0.000004
0.000287
-0.000003
-0.013134
-0.032767
-0.021870
0.000000
-0.020730
-0.005933
-0.017079
0.000019
-0.030258
-0.030316
0.000385
-0.023713
0.000000
0.000299
-0.002580
-0.026216
0.000061
-0.023710
0.000373
0.000000
-0.005259
0.000000
0.000356
-0.021271
-0.000000
-0.000000
0.000201
0.000000
0.000346
-0.005354
-0.000000
0.000039
-0.001895
-0.012429
0.000053
-0.000000
-0.006439
0.000000
0.000000
0.000000
-0.010300
0.000000
0.000467
-0.000791
0.000052
-0.000000
-0.024945
0.000176
0.000150
-0.002864
0.000349
0.000000
-0.003103
-0.022169
0.000000
0.000000
-0.019192
0.000085
-0.003556
0.000000
-0.002981
-0.000004
0.000287
-0.000003
-0.013134
-0.032767
-0.021870
0.000000
-0.020730
-0.005933
-0.017079
0.000019
-0.030258
-0.030316
0.000385
-0.023713
0.000000
0.000299
-0.002580
-0.026216
0.000061
-0.023710
0.000373
0.000000
-0.005259
0.000000
0.000356
-0.021271
-0.000000
-0.000000
0.000201
0.000000
0.000346
-0.005354
-0.000000
0.000039
-0.001895
-0.012429
0.000053
-0.000000
-0.006439
0.000000
0.000000
0.000000
-0.010300
0.000000
0.000467
-0.000791
0.000052
-0.000000
-0.024945
0.000176
0.000150
-0.002864
0.000349
0.000000
-0.003103
-0.022169
0.000000
0.000000
-0.019192
0.000085
-0.003556
0.000000
-0.002981
-0.000004
0.000287
-0.000003
-0.013134
-0.032767
-0.021870
0.000000
-0.020730
-0.005933
-0.017079
0.000019
-0.030258
-0.030316
0.000385
-0.023713
0.000000
0.000299
-0.002580
-0.026216
0.000061
-0.023710
0.000373
0.000000
-0.005259
0.000000
0.000356
-0.021271
-0.000000
-0.000000
0.000201
0.000000
0.000346
-0.005354
-0.000000
0.000039
-0.001895
-0.012429
0.000053
-0.000000
-0.006439
0.000000
0.000000
0.000000
-0.010300
0.000000
0.000467
-0.000791
0.000052
-0.000000
-0.024945
0.000176
0.000150
-0.002864
0.000349
0.000000
-0.003103
-0.022169
0.000000
0.000000
-0.019192
0.000085
-0.003556
0.000000
-0.002981
-0.000004
0.000287
-0.000003
-0.013134
-0.032767
-0.021870
0.000000
-0.020730
-0.005933
-0.017079
0.000019
-0.030258
-0.030316
0.000385
-0.023713
0.000000
